{"learner":{"attributes":{"best_iteration":"199","best_score":"2.9057497393065432","scikit_learn":"{\"_estimator_type\": \"regressor\"}"},"feature_names":["latitude","longitude","elevation","hour","temperature_c","group_size","dist_delta_km","total distance","total_elevation_gain","time_delta_seconds","speed_kmh","grade","terrain"],"feature_types":["float","float","float","int","float","int","float","float","float","float","float","float","c"],"gradient_booster":{"model":{"cats":{"enc":[{"offsets":[],"values":[]},{"offsets":[],"values":[]},{"offsets":[],"values":[]},{"offsets":[],"values":[]},{"offsets":[],"values":[]},{"offsets":[],"values":[]},{"offsets":[],"values":[]},{"offsets":[],"values":[]},{"offsets":[],"values":[]},{"offsets":[],"values":[]},{"offsets":[],"values":[]},{"offsets":[],"values":[]},{"offsets":[0,16,23,28,42,47,52],"values":[69,120,116,114,101,109,101,32,77,111,117,110,116,97,105,110,72,105,103,104,119,97,121,72,105,108,108,121,83,116,101,101,112,32,77,111,117,110,116,97,105,110,84,114,97,105,108,85,114,98,97,110]}],"feature_segments":[0,0,0,0,0,0,0,0,0,0,0,0,0,6],"sorted_idx":[0,1,2,3,4,5]},"gbtree_model_param":{"num_parallel_tree":"1","num_trees":"200"},"iteration_indptr":[0,1,2,3,4,5,6,7,8,9,10,11,12,13,14,15,16,17,18,19,20,21,22,23,24,25,26,27,28,29,30,31,32,33,34,35,36,37,38,39,40,41,42,43,44,45,46,47,48,49,50,51,52,53,54,55,56,57,58,59,60,61,62,63,64,65,66,67,68,69,70,71,72,73,74,75,76,77,78,79,80,81,82,83,84,85,86,87,88,89,90,91,92,93,94,95,96,97,98,99,100,101,102,103,104,105,106,107,108,109,110,111,112,113,114,115,116,117,118,119,120,121,122,123,124,125,126,127,128,129,130,131,132,133,134,135,136,137,138,139,140,141,142,143,144,145,146,147,148,149,150,151,152,153,154,155,156,157,158,159,160,161,162,163,164,165,166,167,168,169,170,171,172,173,174,175,176,177,178,179,180,181,182,183,184,185,186,187,188,189,190,191,192,193,194,195,196,197,198,199,200],"tree_info":[0,0,0,0,0,0,0,0,0,0,0,0,0,0,0,0,0,0,0,0,0,0,0,0,0,0,0,0,0,0,0,0,0,0,0,0,0,0,0,0,0,0,0,0,0,0,0,0,0,0,0,0,0,0,0,0,0,0,0,0,0,0,0,0,0,0,0,0,0,0,0,0,0,0,0,0,0,0,0,0,0,0,0,0,0,0,0,0,0,0,0,0,0,0,0,0,0,0,0,0,0,0,0,0,0,0,0,0,0,0,0,0,0,0,0,0,0,0,0,0,0,0,0,0,0,0,0,0,0,0,0,0,0,0,0,0,0,0,0,0,0,0,0,0,0,0,0,0,0,0,0,0,0,0,0,0,0,0,0,0,0,0,0,0,0,0,0,0,0,0,0,0,0,0,0,0,0,0,0,0,0,0,0,0,0,0,0,0,0,0,0,0,0,0,0,0,0,0,0,0],"trees":[{"base_weights":[2.6176103E-6,-4.6439022E1,1.4886463E1,-5.869533E1,-3.1464441E1,-5.6298013E0,2.378115E1,-6.3892353E1,-5.2787895E1,-4.335498E1,-1.7835308E1,-4.320325E1,1.3182578E0,2.6733053E1,8.108479E0,-6.606626E1,-6.1132526E1,-6.0425068E1,-4.8958824E1,-5.567645E1,-3.8906624E1,-2.6307318E1,-8.5927305E0,-5.438579E1,-3.1341394E1,-6.18648E0,1.4600128E1,-5.4827952E0,2.8312626E1,-3.7652473E1,2.1258453E1,-6.7445283E0,-6.462915E1,-6.2958134E1,-5.9089558E1,-6.543071E1,-5.615422E1,-5.3402916E1,-4.674618E1,-6.4702126E1,-4.5854733E1,-4.2046E1,-2.702586E1,-2.3929808E1,-4.5897846E1,-1.4900429E1,1.2090393E1,-5.9994774E1,-4.809647E1,2.1062431E1,-3.4897694E1,-1.5927624E1,2.5942574E0,1.7156843E1,-6.01307E0,-1.0826721E1,2.6364822E1,1.3764751E1,2.9714228E1,-4.273785E1,-1.5605565E1,-2.829999E0,2.5184963E1,-6.570398E0,-6.3860984E0,-6.571396E0,-6.119337E0,-6.36935E0,-5.777283E0,-6.5799065E0,-4.7990303E0,-5.46707E0,-6.0037346E0,-5.9944983E0,-5.237351E0,-5.045861E0,-4.424193E0,-6.14545E0,-6.812177E0,-5.396972E0,-4.1464763E0,-3.9824185E0,-4.8743315E0,-5.1277514E0,-2.1410115E0,-3.2522018E0,-2.0513532E0,-6.686396E0,-4.129186E0,-3.3338714E-2,-2.1322703E0,-4.6887407E-1,2.2593644E0,-6.259471E0,-5.7261434E0,-5.0059557E0,-4.385425E0,-1.7063175E0,3.0178297E0,-4.043423E0,-2.6300445E0,-4.830053E0,-7.610811E-1,-1.3867548E0,1.212118E0,2.2426958E-1,2.251929E0,-2.8190439E0,-4.193236E-1,1.5041553E0,3.0089786E0,2.3329844E0,-9.0767795E-1,2.530791E0,3.0894344E0,-4.799417E0,-2.92315E0,1.2523918E0,-2.4964604E0,-9.337103E-1,2.1109016E0,2.6974506E0,3.651109E-2],"categories":[],"categories_nodes":[],"categories_segments":[],"categories_sizes":[],"default_left":[0,0,0,0,0,0,0,0,0,0,0,0,0,0,0,0,0,0,0,0,0,0,0,0,0,0,0,0,0,0,0,0,0,0,0,0,0,0,0,0,0,0,0,0,0,0,0,0,0,0,0,0,0,0,0,0,0,0,0,0,0,0,0,0,0,0,0,0,0,0,0,0,0,0,0,0,0,0,0,0,0,0,0,0,0,0,0,0,0,0,0,0,0,0,0,0,0,0,0,0,0,0,0,0,0,0,0,0,0,0,0,0,0,0,0,0,0,0,0,0,0,0,0],"id":0,"left_children":[1,3,5,7,9,11,13,15,17,19,21,23,25,27,29,31,33,35,37,39,41,43,45,47,49,51,53,55,57,59,61,-1,63,65,67,69,71,73,75,77,79,81,83,85,87,89,91,93,95,97,99,101,103,105,-1,107,109,111,113,115,117,119,121,-1,-1,-1,-1,-1,-1,-1,-1,-1,-1,-1,-1,-1,-1,-1,-1,-1,-1,-1,-1,-1,-1,-1,-1,-1,-1,-1,-1,-1,-1,-1,-1,-1,-1,-1,-1,-1,-1,-1,-1,-1,-1,-1,-1,-1,-1,-1,-1,-1,-1,-1,-1,-1,-1,-1,-1,-1,-1,-1,-1],"loss_changes":[2.3472072E8,1.5124768E7,4.6919044E7,1.388064E6,6.011248E6,2.0299756E7,8.2974E6,1.40584E5,6.175E5,1.083728E6,1.3534015E6,1.607954E6,6.5412905E6,7.680368E6,1.71075E7,2.2336E4,3.594E4,1.47704E5,1.36516E5,4.627E5,5.41926E5,4.18977E5,1.078978E6,2.17416E5,1.0986035E6,3.5866705E6,4.527948E6,1.2009852E6,2.933184E6,7.10827E5,2.08876E6,0E0,1.27E3,2.3218E4,2.6844E4,1.7747E4,1.877E4,2.8459E4,8.5586E4,2.6188E4,8.75E4,1.69404E5,4.137405E5,2.354805E5,9.1394375E4,5.9284175E5,3.4076912E5,1.9846E4,2.23635E4,1.30845375E5,2.615395E5,5.3518425E6,3.4589042E6,1.832206E6,0E0,6.958112E5,4.2316625E4,2.7629082E6,6.816E5,3.64641E5,3.1386116E5,4.8247228E5,8.43365E5,0E0,0E0,0E0,0E0,0E0,0E0,0E0,0E0,0E0,0E0,0E0,0E0,0E0,0E0,0E0,0E0,0E0,0E0,0E0,0E0,0E0,0E0,0E0,0E0,0E0,0E0,0E0,0E0,0E0,0E0,0E0,0E0,0E0,0E0,0E0,0E0,0E0,0E0,0E0,0E0,0E0,0E0,0E0,0E0,0E0,0E0,0E0,0E0,0E0,0E0,0E0,0E0,0E0,0E0,0E0,0E0,0E0,0E0,0E0,0E0],"parents":[2147483647,0,0,1,1,2,2,3,3,4,4,5,5,6,6,7,7,8,8,9,9,10,10,11,11,12,12,13,13,14,14,15,15,16,16,17,17,18,18,19,19,20,20,21,21,22,22,23,23,24,24,25,25,26,26,27,27,28,28,29,29,30,30,32,32,33,33,34,34,35,35,36,36,37,37,38,38,39,39,40,40,41,41,42,42,43,43,44,44,45,45,46,46,47,47,48,48,49,49,50,50,51,51,52,52,53,53,55,55,56,56,57,57,58,58,59,59,60,60,61,61,62,62],"right_children":[2,4,6,8,10,12,14,16,18,20,22,24,26,28,30,32,34,36,38,40,42,44,46,48,50,52,54,56,58,60,62,-1,64,66,68,70,72,74,76,78,80,82,84,86,88,90,92,94,96,98,100,102,104,106,-1,108,110,112,114,116,118,120,122,-1,-1,-1,-1,-1,-1,-1,-1,-1,-1,-1,-1,-1,-1,-1,-1,-1,-1,-1,-1,-1,-1,-1,-1,-1,-1,-1,-1,-1,-1,-1,-1,-1,-1,-1,-1,-1,-1,-1,-1,-1,-1,-1,-1,-1,-1,-1,-1,-1,-1,-1,-1,-1,-1,-1,-1,-1,-1,-1,-1],"split_conditions":[9.8528185E0,4.006172E0,1.033272E3,1.8334453E0,3.479597E2,1.1606486E2,4.010424E1,9.4653606E-1,3.9E1,2E0,7.44E2,9.4001144E1,2.602109E1,1.1593947E2,6E0,4.2683357E-1,1.27E2,2E0,2.668514E0,4.4464587E2,3.9989014E1,4.0997093E1,1.87E1,5.6748795E1,2E0,4E0,4.071494E1,1.1E1,1.8869825E1,2E0,7E0,-6.7445283E0,1.22E2,0E0,2.34696E1,2.9E1,2.0361298E1,3.9409798E1,3.9975212E1,2.02E1,-3.1E0,1.1E1,3.9E1,7E0,1.17841995E2,2E0,7.727177E0,3.5457054E1,5.784799E2,3.311469E2,3.6975277E1,1.0299192E2,1.3180943E1,3.480816E2,-6.01307E0,1.99211E2,1.719072E3,1.1637281E2,1.76784E3,2.0622769E3,1.4395704E3,2E0,2.73E1,-6.570398E0,-6.3860984E0,-6.571396E0,-6.119337E0,-6.36935E0,-5.777283E0,-6.5799065E0,-4.7990303E0,-5.46707E0,-6.0037346E0,-5.9944983E0,-5.237351E0,-5.045861E0,-4.424193E0,-6.14545E0,-6.812177E0,-5.396972E0,-4.1464763E0,-3.9824185E0,-4.8743315E0,-5.1277514E0,-2.1410115E0,-3.2522018E0,-2.0513532E0,-6.686396E0,-4.129186E0,-3.3338714E-2,-2.1322703E0,-4.6887407E-1,2.2593644E0,-6.259471E0,-5.7261434E0,-5.0059557E0,-4.385425E0,-1.7063175E0,3.0178297E0,-4.043423E0,-2.6300445E0,-4.830053E0,-7.610811E-1,-1.3867548E0,1.212118E0,2.2426958E-1,2.251929E0,-2.8190439E0,-4.193236E-1,1.5041553E0,3.0089786E0,2.3329844E0,-9.0767795E-1,2.530791E0,3.0894344E0,-4.799417E0,-2.92315E0,1.2523918E0,-2.4964604E0,-9.337103E-1,2.1109016E0,2.6974506E0,3.651109E-2],"split_indices":[7,7,8,7,8,1,0,7,8,9,8,7,7,1,3,7,2,9,7,11,0,0,4,7,5,5,0,3,7,9,3,0,2,4,8,4,10,0,0,4,4,3,8,3,1,5,7,7,8,7,0,8,7,8,0,7,8,1,8,8,8,5,4,0,0,0,0,0,0,0,0,0,0,0,0,0,0,0,0,0,0,0,0,0,0,0,0,0,0,0,0,0,0,0,0,0,0,0,0,0,0,0,0,0,0,0,0,0,0,0,0,0,0,0,0,0,0,0,0,0,0,0,0],"split_type":[0,0,0,0,0,0,0,0,0,0,0,0,0,0,0,0,0,0,0,0,0,0,0,0,0,0,0,0,0,0,0,0,0,0,0,0,0,0,0,0,0,0,0,0,0,0,0,0,0,0,0,0,0,0,0,0,0,0,0,0,0,0,0,0,0,0,0,0,0,0,0,0,0,0,0,0,0,0,0,0,0,0,0,0,0,0,0,0,0,0,0,0,0,0,0,0,0,0,0,0,0,0,0,0,0,0,0,0,0,0,0,0,0,0,0,0,0,0,0,0,0,0,0],"sum_hessian":[3.39527E5,8.2418E4,2.57109E5,4.5321E4,3.7097E4,7.7757E4,1.79352E5,2.4105E4,2.1216E4,1.9811E4,1.7286E4,1.2134E4,6.5623E4,1.50925E5,2.8427E4,1.3471E4,1.0634E4,7.08E3,1.4136E4,5.252E3,1.4559E4,9.018E3,8.268E3,6.244E3,5.89E3,4.1931E4,2.3692E4,7.054E3,1.43871E5,6.345E3,2.2082E4,6.851E3,6.62E3,5.6E3,5.034E3,3.253E3,3.827E3,4.691E3,9.445E3,2.734E3,2.518E3,1.1514E4,3.045E3,8.044E3,9.74E2,6.336E3,1.932E3,3.296E3,2.948E3,3.74E2,5.516E3,1.9878E4,2.2053E4,2.2909E4,7.83E2,6.041E3,1.013E3,1.2644E4,1.31227E5,5.155E3,1.19E3,3.095E3,1.8987E4,2.724E3,3.896E3,2.172E3,3.428E3,1.109E3,3.925E3,3.183E3,7E1,2.78E3,1.047E3,6.3E2,4.061E3,3.797E3,5.648E3,1.412E3,1.322E3,8.8E2,1.638E3,8.651E3,2.863E3,5.71E2,2.474E3,2.286E3,5.758E3,1.73E2,8.01E2,1.939E3,4.397E3,7.44E2,1.188E3,1.678E3,1.618E3,2.008E3,9.4E2,7.2E1,3.02E2,3.353E3,2.163E3,4.062E3,1.5816E4,8.084E3,1.3969E4,6.059E3,1.685E4,1.669E3,4.372E3,2.52E2,7.61E2,8.912E3,3.732E3,2.7726E4,1.03501E5,3.709E3,1.446E3,2.97E2,8.93E2,2.434E3,6.61E2,1.771E4,1.277E3],"tree_param":{"num_deleted":"0","num_feature":"13","num_nodes":"123","size_leaf_vector":"1"}},{"base_weights":[-5.1519583E-4,-4.1796856E1,1.339769E1,-5.2827744E1,-2.831948E1,-5.0672855E0,2.1403055E1,-5.7504967E1,-4.7511158E1,-3.9213364E1,-1.6264214E1,-3.8885128E1,1.1862892E0,2.4059805E1,7.297453E0,-5.9461098E1,-5.5021606E1,-5.4385788E1,-4.4064407E1,-5.0197018E1,-3.5177467E1,-2.381175E1,-7.733502E0,-4.828322E1,-2.7428875E1,-9.139966E0,9.102182E0,-4.934333E0,2.5481413E1,-3.3888638E1,1.9132786E1,-6.099168E0,-5.8398777E1,-5.772417E1,-5.386158E1,-5.889114E1,-5.0541794E1,-4.8542572E1,-4.2277107E1,-5.7913467E1,-4.094794E1,-3.767351E1,-2.3142185E1,-2.1769512E1,-4.1319153E1,-1.3410727E1,1.0882281E1,-5.36818E1,-4.229986E1,1.8959684E1,-3.0836424E1,-2.1379732E1,-7.985365E-3,1.0952384E1,-5.6244354E1,-9.744582E0,2.373279E1,1.0335471E1,2.6594007E1,-3.8465565E1,-1.4046053E1,-2.5466204E0,2.2666613E1,-5.907987E0,-5.7700453E0,-5.915488E0,-5.4466376E0,-5.6345496E0,-5.217851E0,-5.9221225E0,-4.3258862E0,-5.2366624E0,-4.7562656E0,-5.4965644E0,-4.749541E0,-4.089914E0,-4.86824E0,-5.90337E0,-4.7660193E0,-3.869262E0,-5.4485507E0,-3.5966747E0,-4.463513E0,-4.533487E0,-1.7770513E0,-2.9236362E0,-1.8731194E0,-6.0215993E0,-3.716782E0,-3.0006388E-2,-1.9190916E0,-5.457803E-1,1.9634207E0,-5.613233E0,-5.093799E0,-4.4348865E0,-3.8522375E0,-1.8565577E0,2.6596406E0,-4.8172884E0,-2.8269212E0,-4.320088E0,-1.6572691E0,5.6054944E-1,-1.4368647E0,1.1811661E-1,1.6669466E0,-6.2932243E0,-5.4125304E0,-2.537308E0,-3.774005E-1,1.3019903E0,2.694782E0,1.9689274E0,-1.0486485E0,2.2196157E0,2.7758777E0,-4.4072647E0,-2.8093517E0,1.1275734E0,-2.2470937E0,-8.403778E-1,1.9001303E0,1.6177031E0,2.8787882E0],"categories":[],"categories_nodes":[],"categories_segments":[],"categories_sizes":[],"default_left":[0,0,0,0,0,0,0,0,0,0,0,0,0,0,0,0,0,0,0,0,0,0,0,0,0,0,0,0,0,0,0,0,0,0,0,0,0,0,0,0,0,0,0,0,0,0,0,0,0,0,0,0,0,0,0,0,0,0,0,0,0,0,0,0,0,0,0,0,0,0,0,0,0,0,0,0,0,0,0,0,0,0,0,0,0,0,0,0,0,0,0,0,0,0,0,0,0,0,0,0,0,0,0,0,0,0,0,0,0,0,0,0,0,0,0,0,0,0,0,0,0,0,0,0,0],"id":1,"left_children":[1,3,5,7,9,11,13,15,17,19,21,23,25,27,29,31,33,35,37,39,41,43,45,47,49,51,53,55,57,59,61,-1,63,65,67,69,71,73,75,77,79,81,83,85,87,89,91,93,95,97,99,101,103,105,107,109,111,113,115,117,119,121,123,-1,-1,-1,-1,-1,-1,-1,-1,-1,-1,-1,-1,-1,-1,-1,-1,-1,-1,-1,-1,-1,-1,-1,-1,-1,-1,-1,-1,-1,-1,-1,-1,-1,-1,-1,-1,-1,-1,-1,-1,-1,-1,-1,-1,-1,-1,-1,-1,-1,-1,-1,-1,-1,-1,-1,-1,-1,-1,-1,-1,-1,-1],"loss_changes":[1.9013486E8,1.225152E7,3.800582E7,1.12428E6,4.87139E6,1.6444494E7,6.721088E6,1.13832E5,5.00344E5,8.62074E5,1.133779E6,1.305214E6,5.3642895E6,6.221048E6,1.3857909E7,1.8344E4,3.0234E4,1.19656E5,1.111E5,3.71179E5,4.27326E5,3.33189E5,8.740635E5,2.13021E5,8.6539325E5,3.182968E6,4.4919685E6,9.730876E5,2.424152E6,5.75791E5,1.691864E6,0E0,3.86E2,1.1599E4,2.8232E4,1.4229E4,1.8319E4,2.4468E4,8.726E4,2.9933E4,7.0679E4,1.38648E5,2.9138262E5,1.8933975E5,7.424775E4,4.8022538E5,2.7654006E5,2.0674E4,2.2796E4,1.079575E5,2.254865E5,1.2756485E6,1.3148832E6,2.0180825E6,1.109175E4,5.6369025E5,3.4573625E4,1.9180524E6,6.85928E5,2.98619E5,2.5433312E5,3.9090453E5,7.53822E5,0E0,0E0,0E0,0E0,0E0,0E0,0E0,0E0,0E0,0E0,0E0,0E0,0E0,0E0,0E0,0E0,0E0,0E0,0E0,0E0,0E0,0E0,0E0,0E0,0E0,0E0,0E0,0E0,0E0,0E0,0E0,0E0,0E0,0E0,0E0,0E0,0E0,0E0,0E0,0E0,0E0,0E0,0E0,0E0,0E0,0E0,0E0,0E0,0E0,0E0,0E0,0E0,0E0,0E0,0E0,0E0,0E0,0E0,0E0,0E0,0E0,0E0],"parents":[2147483647,0,0,1,1,2,2,3,3,4,4,5,5,6,6,7,7,8,8,9,9,10,10,11,11,12,12,13,13,14,14,15,15,16,16,17,17,18,18,19,19,20,20,21,21,22,22,23,23,24,24,25,25,26,26,27,27,28,28,29,29,30,30,32,32,33,33,34,34,35,35,36,36,37,37,38,38,39,39,40,40,41,41,42,42,43,43,44,44,45,45,46,46,47,47,48,48,49,49,50,50,51,51,52,52,53,53,54,54,55,55,56,56,57,57,58,58,59,59,60,60,61,61,62,62],"right_children":[2,4,6,8,10,12,14,16,18,20,22,24,26,28,30,32,34,36,38,40,42,44,46,48,50,52,54,56,58,60,62,-1,64,66,68,70,72,74,76,78,80,82,84,86,88,90,92,94,96,98,100,102,104,106,108,110,112,114,116,118,120,122,124,-1,-1,-1,-1,-1,-1,-1,-1,-1,-1,-1,-1,-1,-1,-1,-1,-1,-1,-1,-1,-1,-1,-1,-1,-1,-1,-1,-1,-1,-1,-1,-1,-1,-1,-1,-1,-1,-1,-1,-1,-1,-1,-1,-1,-1,-1,-1,-1,-1,-1,-1,-1,-1,-1,-1,-1,-1,-1,-1,-1,-1,-1],"split_conditions":[9.8528185E0,4.006172E0,1.033272E3,1.8334453E0,3.374136E2,1.1606486E2,4.010424E1,9.4653606E-1,3.9E1,2E0,7.44E2,1.0072351E2,1.7883486E1,1.1593947E2,6E0,3.3297178E-1,0E0,2E0,2.5491037E0,4.863629E2,3.999341E1,4.0997093E1,1.87E1,5.8608574E1,2E0,2.859024E2,4.071494E1,1.1E1,1.7598686E1,2E0,7E0,-6.099168E0,6.366491E-1,1.34E2,2.34696E1,2.9E1,1.1638398E2,3.9409798E1,2.0851055E1,1.411E2,4.002E1,2.5233862E1,3.9E1,7E0,1.17841995E2,2E0,7.5312915E0,3.7184986E1,3E0,2.9011987E2,5.279136E2,2E0,1.16394684E2,3.479597E2,2.602109E1,1.99211E2,1.6956024E3,1.1637281E2,1.7410176E3,1.9744944E3,1.4395704E3,2E0,2.782644E2,-5.907987E0,-5.7700453E0,-5.915488E0,-5.4466376E0,-5.6345496E0,-5.217851E0,-5.9221225E0,-4.3258862E0,-5.2366624E0,-4.7562656E0,-5.4965644E0,-4.749541E0,-4.089914E0,-4.86824E0,-5.90337E0,-4.7660193E0,-3.869262E0,-5.4485507E0,-3.5966747E0,-4.463513E0,-4.533487E0,-1.7770513E0,-2.9236362E0,-1.8731194E0,-6.0215993E0,-3.716782E0,-3.0006388E-2,-1.9190916E0,-5.457803E-1,1.9634207E0,-5.613233E0,-5.093799E0,-4.4348865E0,-3.8522375E0,-1.8565577E0,2.6596406E0,-4.8172884E0,-2.8269212E0,-4.320088E0,-1.6572691E0,5.6054944E-1,-1.4368647E0,1.1811661E-1,1.6669466E0,-6.2932243E0,-5.4125304E0,-2.537308E0,-3.774005E-1,1.3019903E0,2.694782E0,1.9689274E0,-1.0486485E0,2.2196157E0,2.7758777E0,-4.4072647E0,-2.8093517E0,1.1275734E0,-2.2470937E0,-8.403778E-1,1.9001303E0,1.6177031E0,2.8787882E0],"split_indices":[7,7,8,7,8,1,0,7,8,9,8,7,7,1,3,7,4,9,7,11,0,0,4,7,5,8,0,3,7,9,3,0,7,2,8,4,1,0,10,2,0,10,8,3,1,5,7,7,3,7,8,9,1,8,7,7,8,1,8,8,8,5,7,0,0,0,0,0,0,0,0,0,0,0,0,0,0,0,0,0,0,0,0,0,0,0,0,0,0,0,0,0,0,0,0,0,0,0,0,0,0,0,0,0,0,0,0,0,0,0,0,0,0,0,0,0,0,0,0,0,0,0,0,0,0],"split_type":[0,0,0,0,0,0,0,0,0,0,0,0,0,0,0,0,0,0,0,0,0,0,0,0,0,0,0,0,0,0,0,0,0,0,0,0,0,0,0,0,0,0,0,0,0,0,0,0,0,0,0,0,0,0,0,0,0,0,0,0,0,0,0,0,0,0,0,0,0,0,0,0,0,0,0,0,0,0,0,0,0,0,0,0,0,0,0,0,0,0,0,0,0,0,0,0,0,0,0,0,0,0,0,0,0,0,0,0,0,0,0,0,0,0,0,0,0,0,0,0,0,0,0,0,0],"sum_hessian":[3.39527E5,8.2418E4,2.57109E5,4.5321E4,3.7097E4,7.7757E4,1.79352E5,2.4105E4,2.1216E4,1.9486E4,1.7611E4,1.2134E4,6.5623E4,1.50925E5,2.8427E4,1.3471E4,1.0634E4,7.08E3,1.4136E4,5.233E3,1.4253E4,9.343E3,8.268E3,6.664E3,5.47E3,2.8476E4,3.7147E4,7.054E3,1.43871E5,6.345E3,2.2082E4,5.496E3,7.975E3,3.179E3,7.455E3,3.253E3,3.827E3,4.025E3,1.0111E4,2.85E3,2.383E3,1.1803E4,2.45E3,8.369E3,9.74E2,6.336E3,1.932E3,3.499E3,3.165E3,3.74E2,5.096E3,1.2167E4,1.6309E4,3.6125E4,1.022E3,6.041E3,1.013E3,9.846E3,1.34025E5,5.155E3,1.19E3,3.095E3,1.8987E4,3.995E3,3.98E3,2.197E3,9.82E2,2.998E3,4.457E3,3.183E3,7E1,2.363E3,1.464E3,5.57E2,3.468E3,8.327E3,1.784E3,2.565E3,2.85E2,2.046E3,3.37E2,9.484E3,2.319E3,4.76E2,1.974E3,2.418E3,5.951E3,1.73E2,8.01E2,1.939E3,4.397E3,6.74E2,1.258E3,1.838E3,1.661E3,2.045E3,1.12E3,6.3E1,3.11E2,6.55E2,4.441E3,2.195E3,9.972E3,1.1726E4,4.583E3,1.3335E4,2.279E4,2.39E2,7.83E2,1.669E3,4.372E3,2.35E2,7.78E2,6.794E3,3.052E3,2.8068E4,1.05957E5,3.344E3,1.811E3,2.97E2,8.93E2,2.434E3,6.61E2,9.218E3,9.769E3],"tree_param":{"num_deleted":"0","num_feature":"13","num_nodes":"125","size_leaf_vector":"1"}},{"base_weights":[-9.5630536E-4,-3.7618732E1,1.2057772E1,-4.6935585E1,-2.4650833E1,-4.5611043E0,1.9262774E1,-5.1756126E1,-4.2062355E1,-3.350528E1,-1.1833685E1,-3.4998745E1,1.0674055E0,2.1653872E1,6.567608E0,-5.3516308E1,-4.9521538E1,-4.8854362E1,-3.8819553E1,-3.8716805E1,-2.7038458E1,-2.029969E1,-6.037714E0,-4.4315212E1,-2.5599398E1,-4.3802633E0,1.3752329E1,-4.440744E0,2.2933313E1,-3.050109E1,1.7219755E1,-5.4641266E1,-5.2344013E1,-5.163869E1,-4.8293365E1,-5.3094738E1,-4.5250732E1,-4.1495888E1,-3.550986E1,-4.7605785E1,-3.3366825E1,-3.395377E1,-2.136388E1,-1.788037E1,-3.604788E1,-8.509248E0,2.477664E1,-4.8617107E1,-3.922846E1,1.706586E1,-2.8417156E1,-1.2787581E1,3.5579913E0,-2.7242105E1,1.7935555E1,8.875224E0,-1.3184656E1,1.1017289E1,2.4081354E1,-3.4620407E1,-1.2642387E1,8.588152E0,2.4532866E1,-5.5164332E0,-5.379105E0,-5.332109E0,-5.164736E0,-5.285597E0,-4.8940954E0,-5.0600753E0,-4.6175637E0,-5.3917446E0,-4.7493668E0,-4.7075787E0,-4.2299485E0,-4.445932E0,-3.9029903E0,-3.3655782E0,-4.195352E0,-5.2212615E0,-3.9730885E0,-2.892071E0,-3.920417E0,-3.8320923E0,-2.7389E0,-4.044681E0,-1.9559481E0,-1.5837654E0,-3.0720172E0,-4.8111796E0,-3.2730541E0,-2.2720833E0,-5.1625204E-1,1.4643387E0,2.6601686E0,-5.1168094E0,-4.669806E0,-4.0755653E0,-3.5553815E0,-1.6738026E0,2.394529E0,-3.0881119E0,-1.3912531E0,-3.888582E0,-5.782389E-1,-1.163582E0,1.1467742E0,1.4022166E0,-4.9254565E0,2.1414886E0,5.8876295E-2,1.980272E-1,2.1263473E0,-2.4456022E0,-7.418348E-1,1.9012126E0,-7.464363E-1,2.0896175E0,2.5145934E0,-3.7261684E0,-1.5307226E0,-1.6915236E0,2.8672953E0,1.1356505E0,-3.3316689E0,1.5368586E0,2.597314E0],"categories":[],"categories_nodes":[],"categories_segments":[],"categories_sizes":[],"default_left":[0,0,0,0,0,0,0,0,0,0,0,0,0,0,0,0,0,0,0,0,0,0,0,0,0,0,0,0,0,0,0,0,0,0,0,0,0,0,0,0,0,0,0,0,0,0,0,0,0,0,0,0,0,0,0,0,0,0,0,0,0,0,0,0,0,0,0,0,0,0,0,0,0,0,0,0,0,0,0,0,0,0,0,0,0,0,0,0,0,0,0,0,0,0,0,0,0,0,0,0,0,0,0,0,0,0,0,0,0,0,0,0,0,0,0,0,0,0,0,0,0,0,0,0,0,0,0],"id":2,"left_children":[1,3,5,7,9,11,13,15,17,19,21,23,25,27,29,31,33,35,37,39,41,43,45,47,49,51,53,55,57,59,61,63,65,67,69,71,73,75,77,79,81,83,85,87,89,91,93,95,97,99,101,103,105,107,109,111,113,115,117,119,121,123,125,-1,-1,-1,-1,-1,-1,-1,-1,-1,-1,-1,-1,-1,-1,-1,-1,-1,-1,-1,-1,-1,-1,-1,-1,-1,-1,-1,-1,-1,-1,-1,-1,-1,-1,-1,-1,-1,-1,-1,-1,-1,-1,-1,-1,-1,-1,-1,-1,-1,-1,-1,-1,-1,-1,-1,-1,-1,-1,-1,-1,-1,-1,-1,-1],"loss_changes":[1.54018E8,9.95672E6,3.0786192E7,1.124472E6,3.910426E6,1.3321426E7,5.444188E6,9.2164E4,5.23512E5,6.858E5,6.908141E5,1.061511E6,4.534892E6,5.038992E6,1.122564E7,1.4908E4,2.516E4,1.15336E5,1.41588E5,5.34986E5,3.562935E5,2.1736325E5,6.368979E5,1.31424E5,7.2697675E5,3.0639858E6,3.3815652E6,8.2155644E5,1.96792E6,4.66411E5,1.393754E6,8E1,1.754E3,1.0188E4,3.0627E4,1.3724E4,2.048E4,6.3479E4,8.4942E4,1.51637E5,1.817605E5,1.16466E5,1.71375E5,1.29657E5,2.8880562E4,3.6801494E5,1.1095031E4,1.37505E4,1.42475E4,8.7607625E4,2.021745E5,4.0760005E6,2.8380458E6,1.6592975E6,1.079803E6,2.388675E5,2.7662875E5,1.8685386E6,4.44448E5,2.62444E5,2.1073716E5,1.175533E6,1.57382E5,0E0,0E0,0E0,0E0,0E0,0E0,0E0,0E0,0E0,0E0,0E0,0E0,0E0,0E0,0E0,0E0,0E0,0E0,0E0,0E0,0E0,0E0,0E0,0E0,0E0,0E0,0E0,0E0,0E0,0E0,0E0,0E0,0E0,0E0,0E0,0E0,0E0,0E0,0E0,0E0,0E0,0E0,0E0,0E0,0E0,0E0,0E0,0E0,0E0,0E0,0E0,0E0,0E0,0E0,0E0,0E0,0E0,0E0,0E0,0E0,0E0,0E0,0E0,0E0],"parents":[2147483647,0,0,1,1,2,2,3,3,4,4,5,5,6,6,7,7,8,8,9,9,10,10,11,11,12,12,13,13,14,14,15,15,16,16,17,17,18,18,19,19,20,20,21,21,22,22,23,23,24,24,25,25,26,26,27,27,28,28,29,29,30,30,31,31,32,32,33,33,34,34,35,35,36,36,37,37,38,38,39,39,40,40,41,41,42,42,43,43,44,44,45,45,46,46,47,47,48,48,49,49,50,50,51,51,52,52,53,53,54,54,55,55,56,56,57,57,58,58,59,59,60,60,61,61,62,62],"right_children":[2,4,6,8,10,12,14,16,18,20,22,24,26,28,30,32,34,36,38,40,42,44,46,48,50,52,54,56,58,60,62,64,66,68,70,72,74,76,78,80,82,84,86,88,90,92,94,96,98,100,102,104,106,108,110,112,114,116,118,120,122,124,126,-1,-1,-1,-1,-1,-1,-1,-1,-1,-1,-1,-1,-1,-1,-1,-1,-1,-1,-1,-1,-1,-1,-1,-1,-1,-1,-1,-1,-1,-1,-1,-1,-1,-1,-1,-1,-1,-1,-1,-1,-1,-1,-1,-1,-1,-1,-1,-1,-1,-1,-1,-1,-1,-1,-1,-1,-1,-1,-1,-1,-1,-1,-1,-1],"split_conditions":[9.8528185E0,4.3662915E0,1.033272E3,1.8334453E0,4.623816E2,1.1606486E2,4.010424E1,9.4653606E-1,3.9E1,3E0,6.857159E0,9.186169E1,3.0568836E1,1.1593947E2,6E0,4.2683357E-1,1.2E0,2E0,3.2825606E0,4.863629E2,3.9967033E1,4.0003845E1,2.97E1,5.6748795E1,2E0,4E0,-2E0,1.1399283E2,1.8869825E1,2E0,2.2482846E2,2.4585542E-1,1.22E2,1.34E2,3.4E1,1.21E2,1.1638398E2,3.997562E1,1.9015915E1,1.1633279E2,1.1637017E2,4E0,-5E0,2.32175E1,1.17841995E2,2E0,3.999765E1,3.1293728E1,5.784799E2,2.9011987E2,3.7575493E1,1.133856E2,1.3180943E1,3.994183E1,5.7126373E1,1.1E1,1.9503122E2,1.16367905E2,1.8940272E3,2.2122383E3,-2.8E0,2.73E1,2E0,-5.5164332E0,-5.379105E0,-5.332109E0,-5.164736E0,-5.285597E0,-4.8940954E0,-5.0600753E0,-4.6175637E0,-5.3917446E0,-4.7493668E0,-4.7075787E0,-4.2299485E0,-4.445932E0,-3.9029903E0,-3.3655782E0,-4.195352E0,-5.2212615E0,-3.9730885E0,-2.892071E0,-3.920417E0,-3.8320923E0,-2.7389E0,-4.044681E0,-1.9559481E0,-1.5837654E0,-3.0720172E0,-4.8111796E0,-3.2730541E0,-2.2720833E0,-5.1625204E-1,1.4643387E0,2.6601686E0,-5.1168094E0,-4.669806E0,-4.0755653E0,-3.5553815E0,-1.6738026E0,2.394529E0,-3.0881119E0,-1.3912531E0,-3.888582E0,-5.782389E-1,-1.163582E0,1.1467742E0,1.4022166E0,-4.9254565E0,2.1414886E0,5.8876295E-2,1.980272E-1,2.1263473E0,-2.4456022E0,-7.418348E-1,1.9012126E0,-7.464363E-1,2.0896175E0,2.5145934E0,-3.7261684E0,-1.5307226E0,-1.6915236E0,2.8672953E0,1.1356505E0,-3.3316689E0,1.5368586E0,2.597314E0],"split_indices":[7,7,8,7,8,1,0,7,8,9,7,7,7,1,3,7,4,9,7,11,0,0,4,7,5,5,4,1,7,9,7,7,2,2,8,2,1,0,10,1,1,5,4,10,1,9,0,7,8,7,0,8,7,0,10,3,7,1,8,8,4,4,5,0,0,0,0,0,0,0,0,0,0,0,0,0,0,0,0,0,0,0,0,0,0,0,0,0,0,0,0,0,0,0,0,0,0,0,0,0,0,0,0,0,0,0,0,0,0,0,0,0,0,0,0,0,0,0,0,0,0,0,0,0,0,0,0],"split_type":[0,0,0,0,0,0,0,0,0,0,0,0,0,0,0,0,0,0,0,0,0,0,0,0,0,0,0,0,0,0,0,0,0,0,0,0,0,0,0,0,0,0,0,0,0,0,0,0,0,0,0,0,0,0,0,0,0,0,0,0,0,0,0,0,0,0,0,0,0,0,0,0,0,0,0,0,0,0,0,0,0,0,0,0,0,0,0,0,0,0,0,0,0,0,0,0,0,0,0,0,0,0,0,0,0,0,0,0,0,0,0,0,0,0,0,0,0,0,0,0,0,0,0,0,0,0,0],"sum_hessian":[3.39527E5,8.2418E4,2.57109E5,4.7959E4,3.4459E4,7.7757E4,1.79352E5,2.4105E4,2.3854E4,2.0379E4,1.408E4,1.2134E4,6.5623E4,1.50925E5,2.8427E4,1.3471E4,1.0634E4,7.704E3,1.615E4,1.1282E4,9.097E3,5.721E3,8.359E3,6.092E3,6.042E3,4.5908E4,1.9715E4,7.054E3,1.43871E5,6.345E3,2.2082E4,6.851E3,6.62E3,3.889E3,6.745E3,3.533E3,4.171E3,8.923E3,7.227E3,4.236E3,7.046E3,4.098E3,4.999E3,4.961E3,7.6E2,7.739E3,6.2E2,3.296E3,2.796E3,3.74E2,5.668E3,2.2295E4,2.3613E4,1.825E3,1.789E4,2.796E3,4.258E3,1.2644E4,1.31227E5,5.155E3,1.19E3,1.0129E4,1.1953E4,4.202E3,2.649E3,2.724E3,3.896E3,2.667E3,1.222E3,3.217E3,3.528E3,3.073E3,4.6E2,2.568E3,1.603E3,4.045E3,4.878E3,5.617E3,1.61E3,2.669E3,1.567E3,4.003E3,3.043E3,2.458E3,1.64E3,4.3E2,4.569E3,4.282E3,6.79E2,1.61E2,5.99E2,1.474E3,6.265E3,9.6E1,5.24E2,1.404E3,1.892E3,1.968E3,8.28E2,6.3E1,3.11E2,4.844E3,8.24E2,4.717E3,1.7578E4,8.084E3,1.5529E4,6.35E2,1.19E3,1.4901E4,2.989E3,1.797E3,9.99E2,1.44E3,2.818E3,8.826E3,3.818E3,3.2878E4,9.8349E4,4.534E3,6.21E2,1.079E3,1.11E2,9.502E3,6.27E2,1.625E3,1.0328E4],"tree_param":{"num_deleted":"0","num_feature":"13","num_nodes":"127","size_leaf_vector":"1"}},{"base_weights":[-1.2744903E-3,-3.385827E1,1.08519E1,-4.2809334E1,-2.2921995E1,-4.1053405E0,1.733651E1,-4.6582226E1,-3.852069E1,-3.18238E1,-1.307119E1,-2.432371E1,2.9693873E0,1.9488516E1,5.9107723E0,-4.800814E1,-4.4310524E1,-4.4068512E1,-3.573915E1,-4.0953712E1,-2.8469105E1,-1.9223986E1,-6.1169276E0,-7.9077405E-1,-3.0570349E1,-7.411136E0,1.0766049E1,-3.996792E0,2.064002E1,-1.9594494E1,1.8591902E1,-4.898989E1,-4.6780598E1,-4.6671627E1,-4.3215454E1,-4.7704117E1,-4.096654E1,-4.1055836E1,-3.4491898E1,-4.7313354E1,-3.3985214E1,-3.0579119E1,-1.8295681E1,-1.6253586E1,-2.789402E1,-9.19231E0,1.876322E1,-9.178813E0,8.905894E0,-3.4994564E1,-1.5678424E1,-3.5635956E1,-4.0601654E0,4.311838E0,1.820306E1,-1.4597186E1,5.19651E0,1.1394382E1,2.18683E1,-2.981444E1,-6.872598E0,2.105791E1,5.19417E0,-4.964921E0,-4.8284698E0,-4.7882953E0,-4.591064E0,-4.7365866E0,-4.3593097E0,-4.567135E0,-4.1298904E0,-4.8191295E0,-3.9502618E0,-3.964758E0,-4.4264483E0,-4.688236E0,-3.8445206E0,-3.2641046E0,-3.898014E0,-4.458959E0,-5.0188823E0,-3.9239342E0,-2.895065E0,-3.2466767E0,-2.5031161E0,-3.739725E0,-1.3673025E0,-1.9899466E0,-1.1510262E0,-2.5988512E0,-4.962641E0,-1.9997166E0,-4.069305E-1,5.6489044E-1,2.4085348E0,-4.846015E-1,-1.8065315E0,-1.4750909E0,1.0386828E0,-4.3268094E0,-2.718932E0,-2.3636851E0,-3.6424258E-1,-4.06877E0,-1.6661733E0,-1.4700153E0,6.7785627E-1,-3.0592313E-1,1.1476115E0,3.3679378E-1,2.1622236E0,-2.2662811E0,-9.23453E-1,-3.2945752E-1,1.4014543E0,1.8718454E-1,2.32419E0,2.2194242E0,1.3979919E0,-3.3220894E0,-3.3446345E-1,-1.247763E0,1.4765843E0,1.2423911E-1,2.1874845E0,-2.1935108E0,2.1545463E0],"categories":[],"categories_nodes":[],"categories_segments":[],"categories_sizes":[],"default_left":[0,0,0,0,0,0,0,0,0,0,0,0,0,0,0,0,0,0,0,0,0,0,0,0,0,0,0,0,0,0,0,0,0,0,0,0,0,0,0,0,0,0,0,0,0,0,0,0,0,0,0,0,0,0,0,0,0,0,0,0,0,0,0,0,0,0,0,0,0,0,0,0,0,0,0,0,0,0,0,0,0,0,0,0,0,0,0,0,0,0,0,0,0,0,0,0,0,0,0,0,0,0,0,0,0,0,0,0,0,0,0,0,0,0,0,0,0,0,0,0,0,0,0,0,0,0,0],"id":3,"left_children":[1,3,5,7,9,11,13,15,17,19,21,23,25,27,29,31,33,35,37,39,41,43,45,47,49,51,53,55,57,59,61,63,65,67,69,71,73,75,77,79,81,83,85,87,89,91,93,95,97,99,101,103,105,107,109,111,113,115,117,119,121,123,125,-1,-1,-1,-1,-1,-1,-1,-1,-1,-1,-1,-1,-1,-1,-1,-1,-1,-1,-1,-1,-1,-1,-1,-1,-1,-1,-1,-1,-1,-1,-1,-1,-1,-1,-1,-1,-1,-1,-1,-1,-1,-1,-1,-1,-1,-1,-1,-1,-1,-1,-1,-1,-1,-1,-1,-1,-1,-1,-1,-1,-1,-1,-1,-1],"loss_changes":[1.2476193E8,8.067128E6,2.493765E7,7.31536E5,3.252706E6,1.1122535E7,4.409868E6,7.596E4,3.25834E5,5.95684E5,7.5346725E5,2.962942E6,4.6620885E6,4.08164E6,9.194992E6,1.554E4,2.2052E4,7.7901E4,9.233E4,2.30347E5,3.05419E5,2.4018675E5,6.328831E5,3.440518E5,1.048869E6,2.3367515E6,1.578931E6,6.876042E5,1.633592E6,1.2272868E6,6.272335E5,1.416E3,4.129E3,4.212E3,2.8111E4,1.1098E4,1.48965E4,3.8978E4,9.3902E4,1.9175E4,6.5021E4,1.22806E5,2.1591194E5,1.20168875E5,9.7393375E4,4.0731912E5,6.3378344E4,8.723822E4,6.889019E4,7.91763E5,3.4953875E5,2.5064825E5,2.547259E6,9.30149E5,7.751905E5,1.4153138E5,2.8299756E5,1.903654E6,3.26228E5,4.71919E5,5.104267E5,2.595635E5,1.3104196E6,0E0,0E0,0E0,0E0,0E0,0E0,0E0,0E0,0E0,0E0,0E0,0E0,0E0,0E0,0E0,0E0,0E0,0E0,0E0,0E0,0E0,0E0,0E0,0E0,0E0,0E0,0E0,0E0,0E0,0E0,0E0,0E0,0E0,0E0,0E0,0E0,0E0,0E0,0E0,0E0,0E0,0E0,0E0,0E0,0E0,0E0,0E0,0E0,0E0,0E0,0E0,0E0,0E0,0E0,0E0,0E0,0E0,0E0,0E0,0E0,0E0,0E0,0E0,0E0],"parents":[2147483647,0,0,1,1,2,2,3,3,4,4,5,5,6,6,7,7,8,8,9,9,10,10,11,11,12,12,13,13,14,14,15,15,16,16,17,17,18,18,19,19,20,20,21,21,22,22,23,23,24,24,25,25,26,26,27,27,28,28,29,29,30,30,31,31,32,32,33,33,34,34,35,35,36,36,37,37,38,38,39,39,40,40,41,41,42,42,43,43,44,44,45,45,46,46,47,47,48,48,49,49,50,50,51,51,52,52,53,53,54,54,55,55,56,56,57,57,58,58,59,59,60,60,61,61,62,62],"right_children":[2,4,6,8,10,12,14,16,18,20,22,24,26,28,30,32,34,36,38,40,42,44,46,48,50,52,54,56,58,60,62,64,66,68,70,72,74,76,78,80,82,84,86,88,90,92,94,96,98,100,102,104,106,108,110,112,114,116,118,120,122,124,126,-1,-1,-1,-1,-1,-1,-1,-1,-1,-1,-1,-1,-1,-1,-1,-1,-1,-1,-1,-1,-1,-1,-1,-1,-1,-1,-1,-1,-1,-1,-1,-1,-1,-1,-1,-1,-1,-1,-1,-1,-1,-1,-1,-1,-1,-1,-1,-1,-1,-1,-1,-1,-1,-1,-1,-1,-1,-1,-1,-1,-1,-1,-1,-1],"split_conditions":[9.8528185E0,4.006172E0,1.033272E3,1.8334453E0,3.374136E2,-2.5E0,4.010424E1,1.0529574E0,3.9E1,2E0,7.44E2,-5.2E0,3.479597E2,1.1593947E2,7E0,5.3359437E-1,3.9948566E1,2E0,-1.6E0,4.4464587E2,3.999341E1,3.81E2,2.8E1,1.4921544E1,2E0,2E0,2.8772858E1,2.4530484E2,2.0721777E1,5E0,2.7E1,2.4585542E-1,1.2467191E2,1.1763616E2,1.8288E1,3.329905E2,1.9444914E1,1.16306786E2,1.1635487E2,2.02E1,-7E-1,7.5312915E0,3.9E1,5.37E2,1.743E3,6.857159E0,7.2943344E0,3.994997E1,2.2566965E1,7.0926025E1,-3.9E0,6E0,4E0,3E0,3E0,1.9040382E2,1.420368E3,1.4E1,1.1445063E2,2.3198328E3,2E0,1.3725261E1,1.9040382E2,-4.964921E0,-4.8284698E0,-4.7882953E0,-4.591064E0,-4.7365866E0,-4.3593097E0,-4.567135E0,-4.1298904E0,-4.8191295E0,-3.9502618E0,-3.964758E0,-4.4264483E0,-4.688236E0,-3.8445206E0,-3.2641046E0,-3.898014E0,-4.458959E0,-5.0188823E0,-3.9239342E0,-2.895065E0,-3.2466767E0,-2.5031161E0,-3.739725E0,-1.3673025E0,-1.9899466E0,-1.1510262E0,-2.5988512E0,-4.962641E0,-1.9997166E0,-4.069305E-1,5.6489044E-1,2.4085348E0,-4.846015E-1,-1.8065315E0,-1.4750909E0,1.0386828E0,-4.3268094E0,-2.718932E0,-2.3636851E0,-3.6424258E-1,-4.06877E0,-1.6661733E0,-1.4700153E0,6.7785627E-1,-3.0592313E-1,1.1476115E0,3.3679378E-1,2.1622236E0,-2.2662811E0,-9.23453E-1,-3.2945752E-1,1.4014543E0,1.8718454E-1,2.32419E0,2.2194242E0,1.3979919E0,-3.3220894E0,-3.3446345E-1,-1.247763E0,1.4765843E0,1.2423911E-1,2.1874845E0,-2.1935108E0,2.1545463E0],"split_indices":[7,7,8,7,8,4,0,7,8,9,8,4,8,1,3,7,0,9,4,11,0,2,4,7,9,3,7,7,7,3,4,7,2,1,8,11,10,1,1,4,4,7,8,8,2,7,7,0,0,7,4,9,5,9,3,7,8,3,10,8,5,7,7,0,0,0,0,0,0,0,0,0,0,0,0,0,0,0,0,0,0,0,0,0,0,0,0,0,0,0,0,0,0,0,0,0,0,0,0,0,0,0,0,0,0,0,0,0,0,0,0,0,0,0,0,0,0,0,0,0,0,0,0,0,0,0,0],"split_type":[0,0,0,0,0,0,0,0,0,0,0,0,0,0,0,0,0,0,0,0,0,0,0,0,0,0,0,0,0,0,0,0,0,0,0,0,0,0,0,0,0,0,0,0,0,0,0,0,0,0,0,0,0,0,0,0,0,0,0,0,0,0,0,0,0,0,0,0,0,0,0,0,0,0,0,0,0,0,0,0,0,0,0,0,0,0,0,0,0,0,0,0,0,0,0,0,0,0,0,0,0,0,0,0,0,0,0,0,0,0,0,0,0,0,0,0,0,0,0,0,0,0,0,0,0,0,0],"sum_hessian":[3.39527E5,8.2418E4,2.57109E5,4.5321E4,3.7097E4,7.7757E4,1.79352E5,2.4105E4,2.1216E4,1.9486E4,1.7611E4,2.0155E4,5.7602E4,1.50925E5,2.8427E4,1.4797E4,9.308E3,7.08E3,1.4136E4,5.233E3,1.4253E4,9.343E3,8.268E3,4.228E3,1.5927E4,2.4707E4,3.2895E4,7.054E3,1.43871E5,9.44E3,1.8987E4,8.2E3,6.597E3,2.936E3,6.372E3,3.253E3,3.827E3,2.68E3,1.1456E4,2.733E3,2.5E3,1.1803E4,2.45E3,6.961E3,2.382E3,7.359E3,9.09E2,2.267E3,1.961E3,1.2278E4,3.649E3,2.621E3,2.2086E4,1.7612E4,1.5283E4,3.276E3,3.778E3,1.6873E4,1.26998E5,5.234E3,4.206E3,1.6035E4,2.952E3,4.202E3,3.998E3,2.886E3,3.711E3,2.384E3,5.52E2,2.783E3,3.589E3,3.066E3,1.87E2,2.743E3,1.084E3,8.24E2,1.856E3,8.117E3,3.339E3,1.412E3,1.321E3,1.22E3,1.28E3,8.803E3,3E3,4.76E2,1.974E3,3.934E3,3.027E3,2.192E3,1.9E2,2.366E3,4.993E3,2.63E2,6.46E2,1.525E3,7.42E2,1.15E2,1.846E3,5.958E3,6.32E3,2.196E3,1.453E3,2.069E3,5.52E2,1.1145E4,1.0941E4,8.681E3,8.931E3,2.863E3,1.242E4,1.307E3,1.969E3,1.925E3,1.853E3,9.355E3,7.518E3,1.21957E5,5.041E3,4.637E3,5.97E2,3.341E3,8.65E2,6.35E2,1.54E4,1.11E3,1.842E3],"tree_param":{"num_deleted":"0","num_feature":"13","num_nodes":"127","size_leaf_vector":"1"}},{"base_weights":[-1.4992073E-3,-2.8129055E1,1.0614929E1,-3.4302044E1,-9.746913E0,-1.8813967E1,1.30877495E1,-3.996155E1,-2.7806278E1,-2.503099E1,-4.2919908E0,-3.1415602E1,-5.117593E0,5.7985735E0,1.8050901E1,-4.2955296E1,-3.735001E1,-3.240119E1,-2.2608793E1,-3.705327E1,-2.2191227E1,-6.544353E0,2.0164738E1,-3.8392624E1,-2.6824474E1,-9.469602E0,1.5334886E1,7.2204933E0,-3.7030083E1,2.007533E1,6.674203E0,-4.4096634E1,-4.1928333E1,-4.068285E1,-3.5265022E1,-3.9700794E1,-2.8337944E1,-2.5174686E1,-1.5068497E1,-4.369533E0,-3.3253952E1,-1.8836668E1,-3.1050076E1,-8.373966E0,9.648892E0,-5.4140525E0,2.3488028E1,-3.998012E1,-3.4226616E1,-2.7069527E1,2.2883837E0,-2.9198072E1,-6.320922E0,9.547793E0,2.2119255E1,-4.120135E0,1.1091537E1,-4.0105076E1,2.382554E1,1.859123E1,2.0717403E1,-1.492613E1,1.7196472E1,-4.493875E0,-4.3631926E0,-4.2969313E0,-4.110906E0,-4.2564063E0,-3.75022E0,-3.8395498E0,-3.342009E0,-4.2822537E0,-3.379873E0,-2.5189073E0,-3.368964E0,-3.026009E0,-2.1038222E0,-3.8603714E0,-1.3347324E0,-3.5852458E0,-2.611064E0,-2.326059E0,-1.4005494E0,-1.7976564E0,-3.4526138E0,1.19713284E-1,-1.0994844E0,1.5139865E0,-7.013826E-1,3.757658E-1,-2.9820712E0,3.222144E0,2.1917853E0,-4.191713E0,-3.8729122E0,-3.5240033E0,-2.9393375E0,-2.9778926E0,-2.3946075E0,-3.9645813E0,-1.641586E0,-1.1468494E0,-3.9632287E-2,5.398718E-1,1.739921E0,-5.340445E-1,2.220102E0,-2.6225245E0,-1.3426222E-2,4.414392E-1,1.5557107E0,-5.210132E0,-3.7080235E0,3.6757037E-1,2.515146E0,1.8747959E0,-3.4739296E0,2.450397E0,2.067564E0,-2.1206229E0,-4.0362427E-1,1.0514683E0,2.0979388E0],"categories":[],"categories_nodes":[],"categories_segments":[],"categories_sizes":[],"default_left":[0,0,0,0,0,0,0,0,0,0,0,0,0,0,0,0,0,0,0,0,0,0,0,0,0,0,0,0,0,0,0,0,0,0,0,0,0,0,0,0,0,0,0,0,0,0,0,0,0,0,0,0,0,0,0,0,0,0,0,0,0,0,0,0,0,0,0,0,0,0,0,0,0,0,0,0,0,0,0,0,0,0,0,0,0,0,0,0,0,0,0,0,0,0,0,0,0,0,0,0,0,0,0,0,0,0,0,0,0,0,0,0,0,0,0,0,0,0,0,0,0,0,0],"id":4,"left_children":[1,3,5,7,9,11,13,15,17,19,21,23,25,27,29,31,33,35,37,39,41,43,45,47,49,51,53,55,57,59,61,63,65,67,69,71,73,75,77,-1,79,81,83,85,87,89,91,93,95,97,-1,99,101,103,105,107,109,111,113,115,117,119,121,-1,-1,-1,-1,-1,-1,-1,-1,-1,-1,-1,-1,-1,-1,-1,-1,-1,-1,-1,-1,-1,-1,-1,-1,-1,-1,-1,-1,-1,-1,-1,-1,-1,-1,-1,-1,-1,-1,-1,-1,-1,-1,-1,-1,-1,-1,-1,-1,-1,-1,-1,-1,-1,-1,-1,-1,-1,-1,-1,-1],"loss_changes":[1.0138818E8,1.055672E7,1.7938128E7,2.559304E6,1.9499975E6,3.297645E6,8.22614E6,2.89368E5,7.73786E5,2.0920975E5,9.4974944E5,3.17724E5,8.15204E5,5.609729E6,3.115472E6,1.8468E4,1.36746E5,5.09354E5,2.9411E5,2.8173125E4,1.4737875E5,4.6777838E5,1.237255E5,2.47355E4,7.37665E4,4.6887312E5,6.2882438E4,3.9138255E6,5.5486175E5,1.09048E5,4.6452705E6,1.243E3,6.033E3,4.4153E4,6.9408E4,1.11902E5,1.85532E5,2.382235E5,1.5613E5,0E0,1.3003875E4,7.6915125E4,6.145625E4,3.558143E5,1.4677192E5,3.7718992E4,1.6942375E4,5.2875E3,4.332625E3,4.986E4,0E0,1.3810269E5,1.9862436E5,2.8214719E4,1.7777812E3,1.9989942E6,1.9817355E6,1.00324E5,3.728086E3,2.90606E5,1.2172E4,4.5778262E5,3.4715625E5,0E0,0E0,0E0,0E0,0E0,0E0,0E0,0E0,0E0,0E0,0E0,0E0,0E0,0E0,0E0,0E0,0E0,0E0,0E0,0E0,0E0,0E0,0E0,0E0,0E0,0E0,0E0,0E0,0E0,0E0,0E0,0E0,0E0,0E0,0E0,0E0,0E0,0E0,0E0,0E0,0E0,0E0,0E0,0E0,0E0,0E0,0E0,0E0,0E0,0E0,0E0,0E0,0E0,0E0,0E0,0E0,0E0,0E0,0E0,0E0],"parents":[2147483647,0,0,1,1,2,2,3,3,4,4,5,5,6,6,7,7,8,8,9,9,10,10,11,11,12,12,13,13,14,14,15,15,16,16,17,17,18,18,19,19,20,20,21,21,22,22,23,23,24,24,25,25,26,26,27,27,28,28,29,29,30,30,31,31,32,32,33,33,34,34,35,35,36,36,37,37,38,38,40,40,41,41,42,42,43,43,44,44,45,45,46,46,47,47,48,48,49,49,51,51,52,52,53,53,54,54,55,55,56,56,57,57,58,58,59,59,60,60,61,61,62,62],"right_children":[2,4,6,8,10,12,14,16,18,20,22,24,26,28,30,32,34,36,38,40,42,44,46,48,50,52,54,56,58,60,62,64,66,68,70,72,74,76,78,-1,80,82,84,86,88,90,92,94,96,98,-1,100,102,104,106,108,110,112,114,116,118,120,122,-1,-1,-1,-1,-1,-1,-1,-1,-1,-1,-1,-1,-1,-1,-1,-1,-1,-1,-1,-1,-1,-1,-1,-1,-1,-1,-1,-1,-1,-1,-1,-1,-1,-1,-1,-1,-1,-1,-1,-1,-1,-1,-1,-1,-1,-1,-1,-1,-1,-1,-1,-1,-1,-1,-1,-1,-1,-1,-1,-1],"split_conditions":[1.1684935E1,4.3805856E2,1.1593947E2,3.2825606E0,5.902876E0,1.6630788E2,1.6418662E3,1.2540452E0,3E0,3.0230732E0,2.97E1,6.3253834E1,1E1,1.213E3,4.012265E1,5.3359437E-1,2.5112218E2,4.4464587E2,3.9989014E1,3E0,1.1634713E2,1.2749784E3,3.999187E1,3.479597E2,3.9409798E1,-4.8E0,1.2E1,3.479597E2,-2.5E0,2.4167593E3,7E0,1.5897967E-1,1.15E2,3E0,3.9972816E1,1.1633845E2,1.1637017E2,4E0,4.48056E1,-4.369533E0,3.9982662E1,4.891047E0,3.9885334E1,3.9908916E1,4E0,1.64E2,1.3E1,1.8202657E2,5.279136E2,1.1076559E2,2.2883837E0,6.037783E2,2.3757935E2,1.6418662E3,1.7216154E2,2E0,2.35625E1,8.522208E2,1.619293E1,4.006982E1,1.8869825E1,2.4167593E3,1.2893295E4,-4.493875E0,-4.3631926E0,-4.2969313E0,-4.110906E0,-4.2564063E0,-3.75022E0,-3.8395498E0,-3.342009E0,-4.2822537E0,-3.379873E0,-2.5189073E0,-3.368964E0,-3.026009E0,-2.1038222E0,-3.8603714E0,-1.3347324E0,-3.5852458E0,-2.611064E0,-2.326059E0,-1.4005494E0,-1.7976564E0,-3.4526138E0,1.19713284E-1,-1.0994844E0,1.5139865E0,-7.013826E-1,3.757658E-1,-2.9820712E0,3.222144E0,2.1917853E0,-4.191713E0,-3.8729122E0,-3.5240033E0,-2.9393375E0,-2.9778926E0,-2.3946075E0,-3.9645813E0,-1.641586E0,-1.1468494E0,-3.9632287E-2,5.398718E-1,1.739921E0,-5.340445E-1,2.220102E0,-2.6225245E0,-1.3426222E-2,4.414392E-1,1.5557107E0,-5.210132E0,-3.7080235E0,3.6757037E-1,2.515146E0,1.8747959E0,-3.4739296E0,2.450397E0,2.067564E0,-2.1206229E0,-4.0362427E-1,1.0514683E0,2.0979388E0],"split_indices":[7,8,1,7,7,7,8,7,9,7,4,7,3,2,0,7,11,11,0,5,1,8,0,8,0,4,3,8,4,8,3,7,2,9,0,1,1,5,8,0,0,7,0,0,5,2,3,8,8,7,0,8,7,8,7,9,7,8,7,0,7,8,11,0,0,0,0,0,0,0,0,0,0,0,0,0,0,0,0,0,0,0,0,0,0,0,0,0,0,0,0,0,0,0,0,0,0,0,0,0,0,0,0,0,0,0,0,0,0,0,0,0,0,0,0,0,0,0,0,0,0,0,0],"split_type":[0,0,0,0,0,0,0,0,0,0,0,0,0,0,0,0,0,0,0,0,0,0,0,0,0,0,0,0,0,0,0,0,0,0,0,0,0,0,0,0,0,0,0,0,0,0,0,0,0,0,0,0,0,0,0,0,0,0,0,0,0,0,0,0,0,0,0,0,0,0,0,0,0,0,0,0,0,0,0,0,0,0,0,0,0,0,0,0,0,0,0,0,0,0,0,0,0,0,0,0,0,0,0,0,0,0,0,0,0,0,0,0,0,0,0,0,0,0,0,0,0,0,0],"sum_hessian":[3.39527E5,9.3035E4,2.46492E5,6.9646E4,2.3389E4,1.9106E4,2.27386E5,3.7216E4,3.243E4,6.151E3,1.7238E4,9.95E3,9.156E3,9.211E4,1.35276E5,1.7332E4,1.9884E4,1.721E4,1.522E4,1.173E3,4.978E3,1.5785E4,1.453E3,3.946E3,6.004E3,7.55E3,1.606E3,8.9151E4,2.959E3,1.1484E5,2.0436E4,8.189E3,9.143E3,7.645E3,1.2239E4,6.151E3,1.1059E4,1.1354E4,3.866E3,4.23E2,7.5E2,3.613E3,1.365E3,1.4183E4,1.602E3,1.67E2,1.286E3,2.851E3,1.095E3,5.975E3,2.9E1,1.038E3,6.512E3,8.68E2,7.38E2,2.2687E4,6.6464E4,2.817E3,1.42E2,3.4689E4,8.0151E4,6.694E3,1.3742E4,2.878E3,5.311E3,4.004E3,5.139E3,4.796E3,2.849E3,4.531E3,7.708E3,4.019E3,2.132E3,6.966E3,4.093E3,5.09E3,6.264E3,2.62E2,3.604E3,5.47E2,2.03E2,1.884E3,1.729E3,2.88E2,1.077E3,3.049E3,1.1134E4,1.205E3,3.97E2,1.22E2,4.5E1,1.93E2,1.093E3,1.106E3,1.745E3,9E2,1.95E2,3.195E3,2.78E3,5.7E2,4.68E2,3.484E3,3.028E3,5.69E2,2.99E2,2E0,7.36E2,3.465E3,1.9222E4,2.6637E4,3.9827E4,5.64E2,2.253E3,9E0,1.33E2,3.4588E4,1.01E2,8.68E2,7.9283E4,4.245E3,2.449E3,4.969E3,8.773E3],"tree_param":{"num_deleted":"0","num_feature":"13","num_nodes":"123","size_leaf_vector":"1"}},{"base_weights":[-1.634194E-3,-2.483168E1,9.744575E0,-3.0640732E1,-8.33169E0,-1.6883898E1,1.200326E1,-3.5463997E1,-2.4115772E1,-2.1839231E1,-3.4286013E0,-2.7727612E1,-4.0026407E0,5.593251E0,1.6258131E1,-3.8139126E1,-3.25455E1,-2.8589008E1,-1.905101E1,-2.6464464E1,-1.5340591E1,-7.1439147E0,7.9048924E0,-3.3355026E1,-2.2703941E1,-8.02711E0,1.3830383E1,6.9099164E0,-3.321068E1,1.8085295E1,6.0068135E0,-3.95417E1,-3.7005684E1,-3.7109894E1,-3.0860361E1,-3.5367558E1,-2.4436913E1,-2.7218464E1,-1.6425367E1,-3.4504196E1,-2.3772686E1,-1.1975762E1,-2.531151E1,-9.766467E0,8.100771E0,1.6036974E1,-6.157821E0,-3.6033043E1,-3.002995E1,-2.2938843E1,2.0671735E0,-2.628366E1,-4.902364E0,8.595637E0,1.998393E1,-3.1861575E0,1.027191E1,-3.5990093E1,2.1463148E1,1.6038687E1,1.846482E1,-1.3433893E1,1.5477055E1,-4.023383E0,-3.8982303E0,-3.8330047E0,-3.6171627E0,-3.8599803E0,-3.3057683E0,-3.402661E0,-2.9338894E0,-3.8497796E0,-2.9849374E0,-2.0670183E0,-3.0192292E0,-3.1207645E0,-1.8419129E0,-2.124062E0,-1.3027633E0,-3.924694E0,-3.1078436E0,-2.5767121E0,-8.4350026E-1,-2.6076972E0,-1.0178729E0,-4.051863E0,-1.8150895E0,-1.7080882E0,-3.068043E-1,1.6681775E0,-2.7850199E0,1.6734965E0,-2.7040746E0,-4.7669157E-1,-4.9809694E0,-3.7795944E0,-3.4982502E0,-3.1450117E0,-2.7393548E0,-2.466168E0,-1.8364252E0,-3.8367035E0,-1.7059094E0,7.4281806E-1,-6.8721485E-1,4.8597938E-1,1.5665089E0,1.9854965E0,2.563895E0,-2.337376E0,4.2796824E-2,5.017808E-1,1.46017E0,-4.744909E0,-3.352787E0,3.344892E-1,2.2655084E0,-2.6011117E0,1.623083E0,1.864274E0,1.5374784E0,-1.9690001E0,-4.1756254E-1,1.785552E0,6.0613984E-1],"categories":[],"categories_nodes":[],"categories_segments":[],"categories_sizes":[],"default_left":[0,0,0,0,0,0,0,0,0,0,0,0,0,0,0,0,0,0,0,0,0,0,0,0,0,0,0,0,0,0,0,0,0,0,0,0,0,0,0,0,0,0,0,0,0,0,0,0,0,0,0,0,0,0,0,0,0,0,0,0,0,0,0,0,0,0,0,0,0,0,0,0,0,0,0,0,0,0,0,0,0,0,0,0,0,0,0,0,0,0,0,0,0,0,0,0,0,0,0,0,0,0,0,0,0,0,0,0,0,0,0,0,0,0,0,0,0,0,0,0,0,0,0,0,0],"id":5,"left_children":[1,3,5,7,9,11,13,15,17,19,21,23,25,27,29,31,33,35,37,39,41,43,45,47,49,51,53,55,57,59,61,63,65,67,69,71,73,75,77,79,81,83,85,87,89,91,93,95,97,99,-1,101,103,105,107,109,111,113,115,117,119,121,123,-1,-1,-1,-1,-1,-1,-1,-1,-1,-1,-1,-1,-1,-1,-1,-1,-1,-1,-1,-1,-1,-1,-1,-1,-1,-1,-1,-1,-1,-1,-1,-1,-1,-1,-1,-1,-1,-1,-1,-1,-1,-1,-1,-1,-1,-1,-1,-1,-1,-1,-1,-1,-1,-1,-1,-1,-1,-1,-1,-1,-1,-1],"loss_changes":[8.216562E7,9.173004E6,1.4665078E7,2.226828E6,1.6504762E6,2.6629005E6,6.129958E6,3.16496E5,6.81126E5,1.99087E5,7.700338E5,2.91868E5,6.2557325E5,4.581731E6,2.530224E6,3.2282E4,1.48612E5,4.48755E5,3.022255E5,8.3061E4,9.2363125E4,5.506834E5,5.164303E5,4.2372E4,5.6228E4,4.0553297E5,5.1528906E4,2.9439028E6,4.4799475E5,8.876E4,3.762827E6,2.1E3,1.1598E4,3.03905E4,6.7533E4,1.03631E5,2.14215E5,1.1989575E5,1.7450725E5,1.4540375E4,8.8707875E4,5.2113094E4,7.505359E4,5.756884E5,6.242422E5,8.64765E4,1.00246914E5,3.675E3,7.312E3,4.244475E4,0E0,1.151565E5,1.475552E5,2.2874477E4,2.840625E1,1.5808458E6,1.480078E6,7.7438E4,3.0124219E3,1.453935E5,5.2884E4,3.87697E5,3.076635E5,0E0,0E0,0E0,0E0,0E0,0E0,0E0,0E0,0E0,0E0,0E0,0E0,0E0,0E0,0E0,0E0,0E0,0E0,0E0,0E0,0E0,0E0,0E0,0E0,0E0,0E0,0E0,0E0,0E0,0E0,0E0,0E0,0E0,0E0,0E0,0E0,0E0,0E0,0E0,0E0,0E0,0E0,0E0,0E0,0E0,0E0,0E0,0E0,0E0,0E0,0E0,0E0,0E0,0E0,0E0,0E0,0E0,0E0,0E0,0E0,0E0,0E0],"parents":[2147483647,0,0,1,1,2,2,3,3,4,4,5,5,6,6,7,7,8,8,9,9,10,10,11,11,12,12,13,13,14,14,15,15,16,16,17,17,18,18,19,19,20,20,21,21,22,22,23,23,24,24,25,25,26,26,27,27,28,28,29,29,30,30,31,31,32,32,33,33,34,34,35,35,36,36,37,37,38,38,39,39,40,40,41,41,42,42,43,43,44,44,45,45,46,46,47,47,48,48,49,49,51,51,52,52,53,53,54,54,55,55,56,56,57,57,58,58,59,59,60,60,61,61,62,62],"right_children":[2,4,6,8,10,12,14,16,18,20,22,24,26,28,30,32,34,36,38,40,42,44,46,48,50,52,54,56,58,60,62,64,66,68,70,72,74,76,78,80,82,84,86,88,90,92,94,96,98,100,-1,102,104,106,108,110,112,114,116,118,120,122,124,-1,-1,-1,-1,-1,-1,-1,-1,-1,-1,-1,-1,-1,-1,-1,-1,-1,-1,-1,-1,-1,-1,-1,-1,-1,-1,-1,-1,-1,-1,-1,-1,-1,-1,-1,-1,-1,-1,-1,-1,-1,-1,-1,-1,-1,-1,-1,-1,-1,-1,-1,-1,-1,-1,-1,-1,-1,-1,-1,-1,-1,-1],"split_conditions":[1.2293991E1,4.3805856E2,1.1593947E2,3.6937315E0,6.0801177E0,1.7625089E2,1.6418662E3,1.6072096E0,3E0,4.891047E0,1.077E3,7.672286E1,1E1,1.213E3,4.012265E1,6.366491E-1,2E0,4.863629E2,3.990504E1,2.668514E0,1.1634713E2,2.67E1,4E0,3.255264E2,3.9409798E1,-4.8E0,1.2E1,3.479597E2,-2.5E0,1.2313228E4,7E0,2.4585542E-1,1.8288E1,5E0,2.2645955E0,1.1633279E2,1.1637017E2,2.75844E2,1.14E1,3E0,3.06E1,2E0,1.17841995E2,5E0,1.1634848E2,3.08E1,2.3E1,2.7574003E1,2.3167084E1,1.4394612E2,2.0671735E0,4.962144E2,1.1388203E2,1.6418662E3,1.1444368E2,2E0,2.7081182E1,8.348472E2,1.619293E1,-8.4E0,3.07E1,6E0,2.7E1,-4.023383E0,-3.8982303E0,-3.8330047E0,-3.6171627E0,-3.8599803E0,-3.3057683E0,-3.402661E0,-2.9338894E0,-3.8497796E0,-2.9849374E0,-2.0670183E0,-3.0192292E0,-3.1207645E0,-1.8419129E0,-2.124062E0,-1.3027633E0,-3.924694E0,-3.1078436E0,-2.5767121E0,-8.4350026E-1,-2.6076972E0,-1.0178729E0,-4.051863E0,-1.8150895E0,-1.7080882E0,-3.068043E-1,1.6681775E0,-2.7850199E0,1.6734965E0,-2.7040746E0,-4.7669157E-1,-4.9809694E0,-3.7795944E0,-3.4982502E0,-3.1450117E0,-2.7393548E0,-2.466168E0,-1.8364252E0,-3.8367035E0,-1.7059094E0,7.4281806E-1,-6.8721485E-1,4.8597938E-1,1.5665089E0,1.9854965E0,2.563895E0,-2.337376E0,4.2796824E-2,5.017808E-1,1.46017E0,-4.744909E0,-3.352787E0,3.344892E-1,2.2655084E0,-2.6011117E0,1.623083E0,1.864274E0,1.5374784E0,-1.9690001E0,-4.1756254E-1,1.785552E0,6.0613984E-1],"split_indices":[7,8,1,7,7,7,8,7,9,7,8,7,3,2,0,7,9,11,0,7,1,4,5,8,0,4,3,8,4,11,3,7,8,5,7,1,1,8,4,5,4,9,1,9,1,4,4,7,0,7,0,8,1,8,1,9,7,8,7,4,4,3,4,0,0,0,0,0,0,0,0,0,0,0,0,0,0,0,0,0,0,0,0,0,0,0,0,0,0,0,0,0,0,0,0,0,0,0,0,0,0,0,0,0,0,0,0,0,0,0,0,0,0,0,0,0,0,0,0,0,0,0,0,0,0],"split_type":[0,0,0,0,0,0,0,0,0,0,0,0,0,0,0,0,0,0,0,0,0,0,0,0,0,0,0,0,0,0,0,0,0,0,0,0,0,0,0,0,0,0,0,0,0,0,0,0,0,0,0,0,0,0,0,0,0,0,0,0,0,0,0,0,0,0,0,0,0,0,0,0,0,0,0,0,0,0,0,0,0,0,0,0,0,0,0,0,0,0,0,0,0,0,0,0,0,0,0,0,0,0,0,0,0,0,0,0,0,0,0,0,0,0,0,0,0,0,0,0,0,0,0,0,0],"sum_hessian":[3.39527E5,9.5704E4,2.43823E5,7.0783E4,2.4921E4,1.9064E4,2.24759E5,4.0696E4,3.0087E4,6.636E3,1.8285E4,1.035E4,8.714E3,8.9671E4,1.35088E5,2.1227E4,1.9469E4,1.5974E4,1.4113E4,3.875E3,2.761E3,1.3771E4,4.514E3,4.879E3,5.471E3,7.11E3,1.604E3,8.6729E4,2.942E3,1.14652E5,2.0436E4,9.472E3,1.1755E4,5.244E3,1.4225E4,6.065E3,9.909E3,3.431E3,1.0682E4,9.69E2,2.906E3,2.066E3,6.95E2,1.175E4,2.021E3,2.86E3,1.654E3,2.697E3,2.182E3,5.442E3,2.9E1,1.038E3,6.072E3,8.68E2,7.36E2,2.1666E4,6.5063E4,2.8E3,1.42E2,1.7942E4,9.671E4,6.694E3,1.3742E4,4.202E3,5.27E3,4.525E3,7.23E3,3.828E3,1.416E3,4.61E3,9.615E3,3.866E3,2.199E3,5.992E3,3.917E3,2.359E3,1.072E3,4.417E3,6.265E3,4.02E2,5.67E2,2.571E3,3.35E2,2.32E2,1.834E3,2.21E2,4.74E2,5.616E3,6.134E3,1.632E3,3.89E2,2.815E3,4.5E1,1.604E3,5E1,9.94E2,1.703E3,1.411E3,7.71E2,3.95E3,1.492E3,4.48E2,5.9E2,8.36E2,5.236E3,5.69E2,2.99E2,7.24E2,1.2E1,3.289E3,1.8377E4,2.9395E4,3.5668E4,4.92E2,2.308E3,9E0,1.33E2,8.1E1,1.7861E4,9.144E4,5.27E3,3.994E3,2.7E3,1.097E4,2.772E3],"tree_param":{"num_deleted":"0","num_feature":"13","num_nodes":"125","size_leaf_vector":"1"}},{"base_weights":[-1.7539003E-3,-2.4756893E1,7.9337363E0,-3.0900774E1,-1.6205376E1,-3.8989065E0,1.2353883E1,-3.3690266E1,-2.7378408E1,-2.3606056E1,-9.569124E0,1.5276529E0,-1.9597706E1,3.9059403E0,1.4110852E1,-3.4802002E1,-3.1600708E1,-3.256205E1,-2.4972755E1,-3.0922226E1,-2.084883E1,-1.3927528E1,-4.193459E0,-4.8528395E0,7.894594E0,-2.2635431E1,9.511951E0,9.74716E0,-2.306902E1,5.8668985E0,1.485089E1,-3.57238E1,-3.3981598E1,-3.3977283E1,-3.0197521E1,-3.5529705E1,-2.991878E1,-2.3827684E1,-2.985919E1,-3.388285E1,-2.5167833E1,-2.2586483E1,-1.27641E1,-1.2778058E1,-2.559341E1,-8.298133E0,9.26655E0,-1.604435E0,-2.2253647E1,-1.3884929E1,1.1198059E1,-2.354916E1,1.5362063E-1,-2.3852264E1,2.0634619E1,-6.763573E0,1.5722708E1,-2.5601212E1,9.0660435E-1,-1.2691072E1,1.3627939E1,1.5686795E1,7.97211E0,-3.6287115E0,-3.5212066E0,-3.4897854E0,-3.3245735E0,-3.5495255E0,-3.229183E0,-2.9108856E0,-3.4088762E0,-3.5805032E0,-2.119933E0,-3.174685E0,-2.7200363E0,-2.6247241E0,-2.0639384E0,-2.7922528E0,-3.4618928E0,-3.0999982E0,-3.7006123E0,-3.524693E0,-2.0738592E0,-2.084927E0,-2.8583639E0,-2.6479297E0,-8.198782E-1,-1.4096034E0,-4.9495125E-1,-4.1845155E0,-2.2044935E0,2.0509143E-1,-1.2968566E0,1.0613531E0,-3.7026703E0,2.5403214E-1,-1.5697618E0,-3.1670194E0,-2.497011E-1,-2.7713273E0,2.2321604E-1,-4.301419E-1,1.3539671E0,-2.437574E0,-2.8276038E-1,-1.7159876E0,1.2432612E0,-2.435667E-1,-2.9042737E0,-1.1300263E0,2.1921241E0,-1.7509369E0,-2.9837146E-1,1.6640772E0,9.3271725E-2,2.1683922E0,-2.6130624E0,-4.626564E-1,1.0434506E0,2.8808776E-1,-2.3529606E0,5.381414E-1,1.9061812E0,1.2046235E0,1.6330258E0,-4.8769513E-1,1.2632428E0],"categories":[],"categories_nodes":[],"categories_segments":[],"categories_sizes":[],"default_left":[0,0,0,0,0,0,0,0,0,0,0,0,0,0,0,0,0,0,0,0,0,0,0,0,0,0,0,0,0,0,0,0,0,0,0,0,0,0,0,0,0,0,0,0,0,0,0,0,0,0,0,0,0,0,0,0,0,0,0,0,0,0,0,0,0,0,0,0,0,0,0,0,0,0,0,0,0,0,0,0,0,0,0,0,0,0,0,0,0,0,0,0,0,0,0,0,0,0,0,0,0,0,0,0,0,0,0,0,0,0,0,0,0,0,0,0,0,0,0,0,0,0,0,0,0,0,0],"id":6,"left_children":[1,3,5,7,9,11,13,15,17,19,21,23,25,27,29,31,33,35,37,39,41,43,45,47,49,51,53,55,57,59,61,63,65,67,69,71,73,75,77,79,81,83,85,87,89,91,93,95,97,99,101,103,105,107,109,111,113,115,117,119,121,123,125,-1,-1,-1,-1,-1,-1,-1,-1,-1,-1,-1,-1,-1,-1,-1,-1,-1,-1,-1,-1,-1,-1,-1,-1,-1,-1,-1,-1,-1,-1,-1,-1,-1,-1,-1,-1,-1,-1,-1,-1,-1,-1,-1,-1,-1,-1,-1,-1,-1,-1,-1,-1,-1,-1,-1,-1,-1,-1,-1,-1,-1,-1,-1,-1],"loss_changes":[6.6698492E7,4.329752E6,1.3447419E7,4.70316E5,1.6922E6,5.956973E6,2.778304E6,6.1064E4,2.63564E5,3.27983E5,4.256525E5,2.1110355E6,1.5885435E6,5.078441E6,9.45288E5,1.1986E4,3.0001E4,5.16275E4,8.0336E4,7.50795E4,1.65975E5,1.342245E5,4.4963756E5,1.467067E6,1.8715201E6,3.3869E5,6.3061844E5,2.6139232E6,3.4832125E5,1.8388495E6,8.17486E5,1.086E3,5.082E3,7.67025E3,2.38275E4,1.17045E4,1.68225E4,9.0024E4,2.434625E4,2.53245E4,6.703675E4,1.00879E5,1.3102231E5,9.4194E4,5.0921875E4,3.0144075E5,1.1899439E5,1.2777032E6,7.595191E5,7.636237E5,8.1975225E5,2.67779E5,1.337213E5,4.717325E4,5.2593875E4,2.8593625E5,2.64121E5,1.304645E5,2.899127E4,6.355135E5,4.0328212E5,2.96806E5,9.2276344E5,0E0,0E0,0E0,0E0,0E0,0E0,0E0,0E0,0E0,0E0,0E0,0E0,0E0,0E0,0E0,0E0,0E0,0E0,0E0,0E0,0E0,0E0,0E0,0E0,0E0,0E0,0E0,0E0,0E0,0E0,0E0,0E0,0E0,0E0,0E0,0E0,0E0,0E0,0E0,0E0,0E0,0E0,0E0,0E0,0E0,0E0,0E0,0E0,0E0,0E0,0E0,0E0,0E0,0E0,0E0,0E0,0E0,0E0,0E0,0E0,0E0,0E0,0E0,0E0],"parents":[2147483647,0,0,1,1,2,2,3,3,4,4,5,5,6,6,7,7,8,8,9,9,10,10,11,11,12,12,13,13,14,14,15,15,16,16,17,17,18,18,19,19,20,20,21,21,22,22,23,23,24,24,25,25,26,26,27,27,28,28,29,29,30,30,31,31,32,32,33,33,34,34,35,35,36,36,37,37,38,38,39,39,40,40,41,41,42,42,43,43,44,44,45,45,46,46,47,47,48,48,49,49,50,50,51,51,52,52,53,53,54,54,55,55,56,56,57,57,58,58,59,59,60,60,61,61,62,62],"right_children":[2,4,6,8,10,12,14,16,18,20,22,24,26,28,30,32,34,36,38,40,42,44,46,48,50,52,54,56,58,60,62,64,66,68,70,72,74,76,78,80,82,84,86,88,90,92,94,96,98,100,102,104,106,108,110,112,114,116,118,120,122,124,126,-1,-1,-1,-1,-1,-1,-1,-1,-1,-1,-1,-1,-1,-1,-1,-1,-1,-1,-1,-1,-1,-1,-1,-1,-1,-1,-1,-1,-1,-1,-1,-1,-1,-1,-1,-1,-1,-1,-1,-1,-1,-1,-1,-1,-1,-1,-1,-1,-1,-1,-1,-1,-1,-1,-1,-1,-1,-1,-1,-1,-1,-1,-1,-1],"split_conditions":[9.8528185E0,4.3662915E0,9.00684E2,2.1234245E0,2.953512E2,4.861733E1,5E0,1.2540452E0,3.9E1,2E0,7.44E2,1.8869825E1,1.8E1,4.006982E1,1.7883486E1,5.3359437E-1,1.5E0,2E0,2.0851055E1,1.38E2,3.999341E1,4.0987804E1,1.87E1,1.164225E2,-2E0,6E0,1.16319374E2,1.1613054E2,2.3460457E3,1E1,4.0151768E1,2.7432E0,1.19E2,1.1630638E2,2.0361298E1,2.9E1,1.1638101E2,5.236489E-3,1.1635487E2,5E0,-2.8E0,1.2E1,5.7E1,3.9990147E1,1.17841995E2,2E0,5.968328E-2,1.2E1,1.1E1,7E0,2E0,4.1273027E3,1.95E2,2.21E1,1.8869825E1,1.9503122E2,8.7418434E1,1.1630181E2,2.5819607E3,1.1638398E2,1.4E1,3.1293728E1,7E0,-3.6287115E0,-3.5212066E0,-3.4897854E0,-3.3245735E0,-3.5495255E0,-3.229183E0,-2.9108856E0,-3.4088762E0,-3.5805032E0,-2.119933E0,-3.174685E0,-2.7200363E0,-2.6247241E0,-2.0639384E0,-2.7922528E0,-3.4618928E0,-3.0999982E0,-3.7006123E0,-3.524693E0,-2.0738592E0,-2.084927E0,-2.8583639E0,-2.6479297E0,-8.198782E-1,-1.4096034E0,-4.9495125E-1,-4.1845155E0,-2.2044935E0,2.0509143E-1,-1.2968566E0,1.0613531E0,-3.7026703E0,2.5403214E-1,-1.5697618E0,-3.1670194E0,-2.497011E-1,-2.7713273E0,2.2321604E-1,-4.301419E-1,1.3539671E0,-2.437574E0,-2.8276038E-1,-1.7159876E0,1.2432612E0,-2.435667E-1,-2.9042737E0,-1.1300263E0,2.1921241E0,-1.7509369E0,-2.9837146E-1,1.6640772E0,9.3271725E-2,2.1683922E0,-2.6130624E0,-4.626564E-1,1.0434506E0,2.8808776E-1,-2.3529606E0,5.381414E-1,1.9061812E0,1.2046235E0,1.6330258E0,-4.8769513E-1,1.2632428E0],"split_indices":[7,7,8,7,8,10,3,7,8,9,8,7,3,0,7,7,4,9,10,2,0,0,4,1,4,9,1,1,8,3,0,8,2,1,10,4,1,6,1,5,4,3,8,0,1,5,6,3,3,3,5,11,8,4,7,7,10,1,8,1,3,7,3,0,0,0,0,0,0,0,0,0,0,0,0,0,0,0,0,0,0,0,0,0,0,0,0,0,0,0,0,0,0,0,0,0,0,0,0,0,0,0,0,0,0,0,0,0,0,0,0,0,0,0,0,0,0,0,0,0,0,0,0,0,0,0,0],"split_type":[0,0,0,0,0,0,0,0,0,0,0,0,0,0,0,0,0,0,0,0,0,0,0,0,0,0,0,0,0,0,0,0,0,0,0,0,0,0,0,0,0,0,0,0,0,0,0,0,0,0,0,0,0,0,0,0,0,0,0,0,0,0,0,0,0,0,0,0,0,0,0,0,0,0,0,0,0,0,0,0,0,0,0,0,0,0,0,0,0,0,0,0,0,0,0,0,0,0,0,0,0,0,0,0,0,0,0,0,0,0,0,0,0,0,0,0,0,0,0,0,0,0,0,0,0,0,0],"sum_hessian":[3.39527E5,8.2418E4,2.57109E5,4.7959E4,3.4459E4,6.9924E4,1.87185E5,2.6759E4,2.12E4,1.629E4,1.8169E4,5.1963E4,1.7961E4,3.2228E4,1.54957E5,1.7456E4,9.303E3,6.716E3,1.4484E4,4.456E3,1.1834E4,1.0033E4,8.136E3,2.5954E4,2.6009E4,1.6264E4,1.697E3,2.6492E4,5.736E3,1.2765E4,1.42192E5,8.2E3,9.256E3,3.445E3,5.858E3,3.158E3,3.558E3,1.1739E4,2.745E3,2.939E3,1.517E3,9.739E3,2.095E3,9.135E3,8.98E2,6.235E3,1.901E3,2.1872E4,4.082E3,3.425E3,2.2584E4,1.5637E4,6.27E2,4.24E2,1.273E3,7.04E3,1.9452E4,5.188E3,5.48E2,3.764E3,9.001E3,1.26784E5,1.5408E4,3.87E3,4.33E3,4.102E3,5.154E3,1.802E3,1.643E3,4.584E3,1.274E3,3.097E3,6.1E1,2.121E3,1.437E3,6.67E3,5.069E3,1.956E3,7.89E2,1.534E3,1.405E3,4.61E2,1.056E3,7.555E3,2.184E3,5.22E2,1.573E3,7.818E3,1.317E3,1.59E2,7.39E2,1.939E3,4.296E3,1.848E3,5.3E1,1.6902E4,4.97E3,2.764E3,1.318E3,1.843E3,1.582E3,2.964E3,1.962E4,1.5037E4,6E2,2.6E2,3.67E2,8.3E1,3.41E2,4.9E1,1.224E3,1.831E3,5.209E3,1.8315E4,1.137E3,5.7E1,5.131E3,3.47E2,2.01E2,1.545E3,2.219E3,3.576E3,5.425E3,1.9046E4,1.07738E5,4.101E3,1.1307E4],"tree_param":{"num_deleted":"0","num_feature":"13","num_nodes":"127","size_leaf_vector":"1"}},{"base_weights":[-1.8443017E-3,-2.018461E1,7.920229E0,-2.4919878E1,-6.7345905E0,-1.3823208E1,9.764555E0,-2.917401E1,-2.020256E1,-1.8352488E1,-2.9265866E0,-2.3136349E1,-3.7437334E0,4.576664E0,1.3208201E1,-3.134086E1,-2.728378E1,-2.6852234E1,-1.8064173E1,-2.7201061E1,-1.6262394E1,-5.114995E0,1.1558597E1,-2.876933E1,-1.9469418E1,-6.86799E0,1.0938909E1,5.6679115E0,-2.758388E1,1.4746458E1,5.1426725E0,-3.2303265E1,-3.070982E1,-2.9927473E1,-2.565905E1,-2.887105E1,-1.6187084E1,-2.3823092E1,-1.58459015E1,-3.2138714E1,-2.437714E1,-1.3623584E1,-2.323194E1,-1.1224817E1,1.1066286E-1,1.8322565E1,-2.4458828E0,-3.0623632E1,-2.6804474E1,-1.965151E1,1.7452326E0,-4.078509E0,-2.0290436E1,6.1404824E0,1.656664E1,1.0196208E0,1.0587336E1,-2.9921865E1,1.840409E1,1.2066503E1,1.4985589E1,-1.1093988E1,1.2575925E1,-3.2831314E0,-3.1911893E0,-3.168809E0,-3.017645E0,-3.1130035E0,-2.7549763E0,-3.0261447E0,-2.47809E0,-3.1621115E0,-2.5433018E0,-3.9538118E-1,-1.80957E0,-1.8658136E0,-2.6623235E0,-1.8497458E0,-1.1116794E0,-3.152826E0,-3.7671602E0,-2.2914865E0,-3.388684E0,-1.5250891E0,-5.786466E-1,-2.1427457E0,-4.405239E0,-1.7124752E0,-6.624791E-1,3.479235E-1,-1.5579063E0,-2.7030106E0,1.9756088E0,-3.1862745E0,-2.9593039E0,-2.731033E0,-2.2256942E0,-1.8101101E0,-2.3249843E0,-7.627499E-1,3.4500775E-1,-3.2062588E0,-1.4326373E0,2.926416E-1,1.2962737E0,-3.5977516E-1,1.6626242E0,-4.79585E-1,6.194772E-1,-2.945637E-1,1.2840977E0,-3.9981134E0,-2.7462947E0,2.848637E-1,1.9427601E0,9.372193E-1,1.5421714E0,1.5178312E0,1.164422E0,-1.5602889E0,-1.7804861E-1,1.15349844E-1,1.4128196E0],"categories":[],"categories_nodes":[],"categories_segments":[],"categories_sizes":[],"default_left":[0,0,0,0,0,0,0,0,0,0,0,0,0,0,0,0,0,0,0,0,0,0,0,0,0,0,0,0,0,0,0,0,0,0,0,0,0,0,0,0,0,0,0,0,0,0,0,0,0,0,0,0,0,0,0,0,0,0,0,0,0,0,0,0,0,0,0,0,0,0,0,0,0,0,0,0,0,0,0,0,0,0,0,0,0,0,0,0,0,0,0,0,0,0,0,0,0,0,0,0,0,0,0,0,0,0,0,0,0,0,0,0,0,0,0,0,0,0,0,0,0,0,0],"id":7,"left_children":[1,3,5,7,9,11,13,15,17,19,21,23,25,27,29,31,33,35,37,39,41,43,45,47,49,51,53,55,57,59,61,63,65,67,69,71,73,75,77,79,81,83,85,87,89,91,-1,93,95,97,-1,99,101,103,105,107,109,111,113,115,117,119,121,-1,-1,-1,-1,-1,-1,-1,-1,-1,-1,-1,-1,-1,-1,-1,-1,-1,-1,-1,-1,-1,-1,-1,-1,-1,-1,-1,-1,-1,-1,-1,-1,-1,-1,-1,-1,-1,-1,-1,-1,-1,-1,-1,-1,-1,-1,-1,-1,-1,-1,-1,-1,-1,-1,-1,-1,-1,-1,-1,-1],"loss_changes":[5.428707E7,6.095236E6,9.77796E6,1.419908E6,1.1025204E6,1.7895748E6,4.015336E6,1.5158E5,4.76837E5,1.13334875E5,5.950904E5,2.04118E5,4.2012822E5,3.1472055E6,1.675954E6,9.536E3,8.4644E4,1.753545E5,3.241425E5,1.55863125E4,9.125375E4,5.2068047E5,6.0072975E5,1.340675E4,4.07155E4,2.826392E5,4.329414E4,1.983236E6,3.169795E5,7.2524E4,2.6117765E6,3.67E2,4.516E3,2.07675E4,4.90545E4,6.4103E4,3.0328344E4,1.0163825E5,2.297935E5,2.44375E2,9.666719E3,4.6002438E4,5.0376875E4,2.0392394E5,4.6467588E5,1.3543831E5,0E0,1.61375E3,3.772125E3,3.291875E4,0E0,1.6709947E5,9.074325E4,1.9016785E4,9.479531E2,1.3421581E6,1.2851215E6,6.81845E4,2.2213867E3,8.3918125E4,6.6894E4,2.8536106E5,2.631785E5,0E0,0E0,0E0,0E0,0E0,0E0,0E0,0E0,0E0,0E0,0E0,0E0,0E0,0E0,0E0,0E0,0E0,0E0,0E0,0E0,0E0,0E0,0E0,0E0,0E0,0E0,0E0,0E0,0E0,0E0,0E0,0E0,0E0,0E0,0E0,0E0,0E0,0E0,0E0,0E0,0E0,0E0,0E0,0E0,0E0,0E0,0E0,0E0,0E0,0E0,0E0,0E0,0E0,0E0,0E0,0E0,0E0,0E0,0E0,0E0],"parents":[2147483647,0,0,1,1,2,2,3,3,4,4,5,5,6,6,7,7,8,8,9,9,10,10,11,11,12,12,13,13,14,14,15,15,16,16,17,17,18,18,19,19,20,20,21,21,22,22,23,23,24,24,25,25,26,26,27,27,28,28,29,29,30,30,31,31,32,32,33,33,34,34,35,35,36,36,37,37,38,38,39,39,40,40,41,41,42,42,43,43,44,44,45,45,47,47,48,48,49,49,51,51,52,52,53,53,54,54,55,55,56,56,57,57,58,58,59,59,60,60,61,61,62,62],"right_children":[2,4,6,8,10,12,14,16,18,20,22,24,26,28,30,32,34,36,38,40,42,44,46,48,50,52,54,56,58,60,62,64,66,68,70,72,74,76,78,80,82,84,86,88,90,92,-1,94,96,98,-1,100,102,104,106,108,110,112,114,116,118,120,122,-1,-1,-1,-1,-1,-1,-1,-1,-1,-1,-1,-1,-1,-1,-1,-1,-1,-1,-1,-1,-1,-1,-1,-1,-1,-1,-1,-1,-1,-1,-1,-1,-1,-1,-1,-1,-1,-1,-1,-1,-1,-1,-1,-1,-1,-1,-1,-1,-1,-1,-1,-1,-1,-1,-1,-1,-1,-1,-1,-1],"split_conditions":[1.2293991E1,4.3805856E2,1.1593947E2,3.2825606E0,5.902876E0,1.6630788E2,1.6418662E3,1.2540452E0,2E0,3.0230732E0,2.91E1,6.3253834E1,1E1,1.213E3,4.0116398E1,4.2683357E-1,2.92608E1,2.65176E2,3E0,3E0,1.1634713E2,5E0,1.1634848E2,4.074291E1,3.9409798E1,1.0276652E3,1.2E1,2.646016E1,-2.5E0,7.6576704E3,7E0,1.5897967E-1,9E0,3E0,3.9409798E1,4.4464587E2,9.84E1,1.16334076E2,7.727177E0,3.350059E1,9.29E2,3.05E1,8.010144E2,8E0,4.0006546E1,3.9936386E1,-2.4458828E0,1.7102328E2,5.279136E2,-3.2E0,1.7452326E0,2.526473E2,4.721352E2,1.6608552E3,1.7216154E2,3E0,3E0,8.522208E2,1.619293E1,3E0,3.07E1,2.4469343E3,3.524943E3,-3.2831314E0,-3.1911893E0,-3.168809E0,-3.017645E0,-3.1130035E0,-2.7549763E0,-3.0261447E0,-2.47809E0,-3.1621115E0,-2.5433018E0,-3.9538118E-1,-1.80957E0,-1.8658136E0,-2.6623235E0,-1.8497458E0,-1.1116794E0,-3.152826E0,-3.7671602E0,-2.2914865E0,-3.388684E0,-1.5250891E0,-5.786466E-1,-2.1427457E0,-4.405239E0,-1.7124752E0,-6.624791E-1,3.479235E-1,-1.5579063E0,-2.7030106E0,1.9756088E0,-3.1862745E0,-2.9593039E0,-2.731033E0,-2.2256942E0,-1.8101101E0,-2.3249843E0,-7.627499E-1,3.4500775E-1,-3.2062588E0,-1.4326373E0,2.926416E-1,1.2962737E0,-3.5977516E-1,1.6626242E0,-4.79585E-1,6.194772E-1,-2.945637E-1,1.2840977E0,-3.9981134E0,-2.7462947E0,2.848637E-1,1.9427601E0,9.372193E-1,1.5421714E0,1.5178312E0,1.164422E0,-1.5602889E0,-1.7804861E-1,1.15349844E-1,1.4128196E0],"split_indices":[7,8,1,7,7,7,8,7,9,7,4,7,3,2,0,7,8,8,3,5,1,9,1,7,0,7,3,7,4,11,3,7,8,9,0,11,2,1,7,10,8,4,8,3,0,0,0,8,8,4,0,7,8,8,7,9,3,8,7,9,4,8,11,0,0,0,0,0,0,0,0,0,0,0,0,0,0,0,0,0,0,0,0,0,0,0,0,0,0,0,0,0,0,0,0,0,0,0,0,0,0,0,0,0,0,0,0,0,0,0,0,0,0,0,0,0,0,0,0,0,0,0,0],"split_type":[0,0,0,0,0,0,0,0,0,0,0,0,0,0,0,0,0,0,0,0,0,0,0,0,0,0,0,0,0,0,0,0,0,0,0,0,0,0,0,0,0,0,0,0,0,0,0,0,0,0,0,0,0,0,0,0,0,0,0,0,0,0,0,0,0,0,0,0,0,0,0,0,0,0,0,0,0,0,0,0,0,0,0,0,0,0,0,0,0,0,0,0,0,0,0,0,0,0,0,0,0,0,0,0,0,0,0,0,0,0,0,0,0,0,0,0,0,0,0,0,0,0,0],"sum_hessian":[3.39527E5,9.5704E4,2.43823E5,7.0783E4,2.4921E4,1.9064E4,2.24759E5,3.7216E4,3.3567E4,6.151E3,1.877E4,9.908E3,9.156E3,8.9671E4,1.35088E5,1.7332E4,1.9884E4,8.165E3,2.5402E4,1.173E3,4.978E3,1.6307E4,2.463E3,3.904E3,6.004E3,7.55E3,1.606E3,8.6729E4,2.942E3,1.1345E5,2.1638E4,6.844E3,1.0488E4,7.562E3,1.2322E4,6.864E3,1.301E3,7.061E3,1.8341E4,4.23E2,7.5E2,3.613E3,1.365E3,7.517E3,8.79E3,2.074E3,3.89E2,2.001E3,1.903E3,5.975E3,2.9E1,6.252E3,1.298E3,8.68E2,7.38E2,4.4594E4,4.2135E4,2.8E3,1.42E2,9.298E3,1.04152E5,6.795E3,1.4843E4,2.878E3,3.966E3,3.68E3,6.808E3,5.014E3,2.548E3,1.969E3,1.0353E4,3.809E3,3.055E3,1.76E2,1.125E3,2.485E3,4.576E3,1.175E4,6.591E3,3.87E2,3.6E1,6.53E2,9.7E1,2.991E3,6.22E2,1.258E3,1.07E2,3.292E3,4.225E3,7.237E3,1.553E3,6.3E1,2.011E3,8.95E2,1.106E3,1.708E3,1.95E2,4.18E3,1.795E3,4.249E3,2.003E3,4.35E2,8.63E2,5.91E2,2.77E2,2E0,7.36E2,2.0998E4,2.3596E4,6.015E3,3.612E4,5.47E2,2.253E3,9E0,1.33E2,5.159E3,4.139E3,9.8469E4,5.683E3,4.578E3,2.217E3,1.776E3,1.3067E4],"tree_param":{"num_deleted":"0","num_feature":"13","num_nodes":"123","size_leaf_vector":"1"}},{"base_weights":[-1.8994543E-3,-1.8532833E1,6.9923925E0,-2.2985985E1,-7.382236E0,-1.8275787E0,1.0631377E1,-2.6244213E1,-1.8830658E1,-1.4773947E1,-1.7411549E0,-1.0756263E1,4.850066E0,1.1668596E1,3.7141132E0,-2.8176582E1,-2.4596636E1,-2.1876535E1,-1.5219473E1,-1.9815496E1,-1.033368E1,-8.036122E0,3.7350185E0,-2.6570772E1,-8.022467E0,-7.3743668E0,7.485575E0,6.910852E0,1.3292581E1,-1.1669757E1,1.2424925E1,-2.8855927E1,-2.7334068E1,-2.6889538E1,-2.3125483E1,-2.6645592E1,-1.8949286E1,-1.9639538E1,-1.1605083E1,-2.7071117E1,-1.7349901E1,-7.5213294E0,-1.6195929E1,-6.188138E0,-2.1857191E1,1.012346E1,-4.37894E0,-4.2210293E1,-2.3818983E1,-1.3661284E1,-3.3198643E-1,-1.0738688E1,8.965218E0,9.96856E0,6.3429606E-1,2.3928018E0,1.16461115E1,5.63516E0,1.3450033E1,-1.6953823E1,-2.1465487E0,3.1699605E0,1.4218622E1,-2.9377985E0,-2.8431575E0,-2.8448498E0,-2.6724777E0,-2.822204E0,-2.4682245E0,-2.6905687E0,-2.2275288E0,-2.8653927E0,-2.2672234E0,-1.6341568E0,-2.3145845E0,-2.3766532E0,-1.4641436E0,-1.8595454E0,-7.512827E-1,-2.974178E0,-2.2945752E0,-1.8509134E0,-6.6674435E-1,-1.706376E0,-4.3483463E-1,-2.6192029E0,-1.1906389E0,-9.951488E-1,5.37108E-1,-1.7629788E0,-4.35567E0,-1.2017677E0,1.3039346E0,2.4651709E0,-1.0000081E0,-4.2651243E0,2.5671759E0,-2.6355484E0,-1.3694583E0,-1.0808309E0,-2.6584234E0,-1.7284234E0,8.6386615E-1,-1.6530854E0,-4.3054864E-1,-2.4508755E0,1.5262916E0,-1.6763242E0,1.0975188E0,-9.793214E-1,8.356167E-1,-2.730693E-1,1.097695E0,1.3904923E0,-1.2232372E0,-1.776648E-1,1.306805E0,1.3820267E0,1.151532E0,-2.0072372E0,-3.7801453E-1,-5.32212E-1,1.3193704E0,3.874894E-2,1.3787988E0,4.843421E-1,1.4799906E0],"categories":[],"categories_nodes":[],"categories_segments":[],"categories_sizes":[],"default_left":[0,0,0,0,0,0,0,0,0,0,0,0,0,0,0,0,0,0,0,0,0,0,0,0,0,0,0,0,0,0,0,0,0,0,0,0,0,0,0,0,0,0,0,0,0,0,0,0,0,0,0,0,0,0,0,0,0,0,0,0,0,0,0,0,0,0,0,0,0,0,0,0,0,0,0,0,0,0,0,0,0,0,0,0,0,0,0,0,0,0,0,0,0,0,0,0,0,0,0,0,0,0,0,0,0,0,0,0,0,0,0,0,0,0,0,0,0,0,0,0,0,0,0,0,0,0,0],"id":8,"left_children":[1,3,5,7,9,11,13,15,17,19,21,23,25,27,29,31,33,35,37,39,41,43,45,47,49,51,53,55,57,59,61,63,65,67,69,71,73,75,77,79,81,83,85,87,89,91,93,95,97,99,101,103,105,107,109,111,113,115,117,119,121,123,125,-1,-1,-1,-1,-1,-1,-1,-1,-1,-1,-1,-1,-1,-1,-1,-1,-1,-1,-1,-1,-1,-1,-1,-1,-1,-1,-1,-1,-1,-1,-1,-1,-1,-1,-1,-1,-1,-1,-1,-1,-1,-1,-1,-1,-1,-1,-1,-1,-1,-1,-1,-1,-1,-1,-1,-1,-1,-1,-1,-1,-1,-1,-1,-1],"loss_changes":[4.4006612E7,4.619558E6,7.911396E6,8.99632E5,1.1071611E6,4.2926395E6,1.25193E6,1.1794E5,3.21098E5,2.570755E5,5.192178E5,1.3316428E6,1.3271305E6,1.172358E6,3.0494515E6,9.023E3,6.725E4,2.20764E5,2.13433E5,9.579325E4,1.00661375E5,1.7883138E5,4.1757962E5,1.9438125E5,1.1390696E6,4.0171894E5,5.764494E5,8.261495E5,1.36322E5,4.1395662E5,2.4114525E5,1.2635E3,4.4485E3,2.2416E4,3.88155E4,4.7437E4,1.07141E5,1.23724E5,2.1040331E5,1.4334375E4,4.964575E4,1.2506464E5,8.463081E4,2.68979E5,7.500322E4,2.9113322E5,5.793914E5,2.138925E4,9.8843E4,5.5846025E5,1.6901324E6,2.2570031E5,2.634637E5,6.6946375E5,7.259686E5,8.692232E5,1.01715175E6,1.2568616E5,7.924E4,2.17293E5,1.4314342E5,6.971934E4,6.625025E4,0E0,0E0,0E0,0E0,0E0,0E0,0E0,0E0,0E0,0E0,0E0,0E0,0E0,0E0,0E0,0E0,0E0,0E0,0E0,0E0,0E0,0E0,0E0,0E0,0E0,0E0,0E0,0E0,0E0,0E0,0E0,0E0,0E0,0E0,0E0,0E0,0E0,0E0,0E0,0E0,0E0,0E0,0E0,0E0,0E0,0E0,0E0,0E0,0E0,0E0,0E0,0E0,0E0,0E0,0E0,0E0,0E0,0E0,0E0,0E0,0E0,0E0,0E0,0E0],"parents":[2147483647,0,0,1,1,2,2,3,3,4,4,5,5,6,6,7,7,8,8,9,9,10,10,11,11,12,12,13,13,14,14,15,15,16,16,17,17,18,18,19,19,20,20,21,21,22,22,23,23,24,24,25,25,26,26,27,27,28,28,29,29,30,30,31,31,32,32,33,33,34,34,35,35,36,36,37,37,38,38,39,39,40,40,41,41,42,42,43,43,44,44,45,45,46,46,47,47,48,48,49,49,50,50,51,51,52,52,53,53,54,54,55,55,56,56,57,57,58,58,59,59,60,60,61,61,62,62],"right_children":[2,4,6,8,10,12,14,16,18,20,22,24,26,28,30,32,34,36,38,40,42,44,46,48,50,52,54,56,58,60,62,64,66,68,70,72,74,76,78,80,82,84,86,88,90,92,94,96,98,100,102,104,106,108,110,112,114,116,118,120,122,124,126,-1,-1,-1,-1,-1,-1,-1,-1,-1,-1,-1,-1,-1,-1,-1,-1,-1,-1,-1,-1,-1,-1,-1,-1,-1,-1,-1,-1,-1,-1,-1,-1,-1,-1,-1,-1,-1,-1,-1,-1,-1,-1,-1,-1,-1,-1,-1,-1,-1,-1,-1,-1,-1,-1,-1,-1,-1,-1,-1,-1,-1,-1,-1,-1],"split_conditions":[1.1684935E1,3.828288E2,7.0836543E3,3.4215093E0,7.052673E0,2E0,4.010424E1,1.2540452E0,3E0,4.891047E0,8.211312E2,1.0849845E3,1.6423252E1,1.4609064E3,7E0,6.366491E-1,2.5112218E2,4.4464587E2,3.996731E1,2.5491037E0,1.1634713E2,4.0028522E1,4E0,8.807831E-3,5E0,2.230971E2,4.78045E1,2.7081182E1,2.2775244E1,6E0,2E0,2.7432E0,9E0,3E0,1.1630567E2,1.1634182E2,1.1637017E2,4E0,1.14E1,3E0,3.06E1,1.1631319E2,1.1793278E2,3.9989014E1,1.547E3,3.9939907E1,3.1876898E1,2.3181576E1,1.1633478E2,4.0028522E1,1.1627186E2,4E0,1.9E0,1E0,1.3098896E3,5E0,1.8909362E3,2.576779E2,2.21E1,2.2122383E3,2E0,8E0,1.4481698E1,-2.9377985E0,-2.8431575E0,-2.8448498E0,-2.6724777E0,-2.822204E0,-2.4682245E0,-2.6905687E0,-2.2275288E0,-2.8653927E0,-2.2672234E0,-1.6341568E0,-2.3145845E0,-2.3766532E0,-1.4641436E0,-1.8595454E0,-7.512827E-1,-2.974178E0,-2.2945752E0,-1.8509134E0,-6.6674435E-1,-1.706376E0,-4.3483463E-1,-2.6192029E0,-1.1906389E0,-9.951488E-1,5.37108E-1,-1.7629788E0,-4.35567E0,-1.2017677E0,1.3039346E0,2.4651709E0,-1.0000081E0,-4.2651243E0,2.5671759E0,-2.6355484E0,-1.3694583E0,-1.0808309E0,-2.6584234E0,-1.7284234E0,8.6386615E-1,-1.6530854E0,-4.3054864E-1,-2.4508755E0,1.5262916E0,-1.6763242E0,1.0975188E0,-9.793214E-1,8.356167E-1,-2.730693E-1,1.097695E0,1.3904923E0,-1.2232372E0,-1.776648E-1,1.306805E0,1.3820267E0,1.151532E0,-2.0072372E0,-3.7801453E-1,-5.32212E-1,1.3193704E0,3.874894E-2,1.3787988E0,4.843421E-1,1.4799906E0],"split_indices":[7,8,11,7,7,9,0,7,9,7,8,11,7,8,3,7,11,11,0,7,1,0,5,6,3,2,10,7,0,3,5,8,8,9,1,1,1,5,4,5,4,1,1,0,2,0,0,7,1,0,1,5,4,3,11,9,7,7,4,8,5,3,7,0,0,0,0,0,0,0,0,0,0,0,0,0,0,0,0,0,0,0,0,0,0,0,0,0,0,0,0,0,0,0,0,0,0,0,0,0,0,0,0,0,0,0,0,0,0,0,0,0,0,0,0,0,0,0,0,0,0,0,0,0,0,0,0],"split_type":[0,0,0,0,0,0,0,0,0,0,0,0,0,0,0,0,0,0,0,0,0,0,0,0,0,0,0,0,0,0,0,0,0,0,0,0,0,0,0,0,0,0,0,0,0,0,0,0,0,0,0,0,0,0,0,0,0,0,0,0,0,0,0,0,0,0,0,0,0,0,0,0,0,0,0,0,0,0,0,0,0,0,0,0,0,0,0,0,0,0,0,0,0,0,0,0,0,0,0,0,0,0,0,0,0,0,0,0,0,0,0,0,0,0,0,0,0,0,0,0,0,0,0,0,0,0,0],"sum_hessian":[3.39527E5,9.3035E4,2.46492E5,6.6483E4,2.6552E4,7.1995E4,1.74497E5,3.7261E4,2.9222E4,1.1492E4,1.506E4,3.0805E4,4.119E4,1.51743E5,2.2754E4,1.7141E4,2.012E4,1.5849E4,1.3373E4,5.38E3,6.112E3,7.006E3,8.054E3,4.539E3,2.6266E4,7.305E3,3.3885E4,3.8616E4,1.13127E5,8.226E3,1.4528E4,9.471E3,7.67E3,7.857E3,1.2263E4,6.025E3,9.824E3,6.014E3,7.359E3,1.362E3,4.018E3,4.132E3,1.98E3,6.181E3,8.25E2,4.506E3,3.548E3,6.77E2,3.862E3,1.5154E4,1.1112E4,6.058E3,1.247E3,2.4871E4,9.014E3,1.9762E4,1.8854E4,2.28E3,1.10847E5,5.29E3,2.936E3,2.359E3,1.2169E4,4.216E3,5.255E3,2.695E3,4.975E3,4.892E3,2.965E3,2.246E3,1.0017E4,3.998E3,2.027E3,6.062E3,3.762E3,3.292E3,2.722E3,2.716E3,4.643E3,8.23E2,5.39E2,3.624E3,3.94E2,1.03E3,3.102E3,5.93E2,1.387E3,4.663E3,1.518E3,6.92E2,1.33E2,5.24E2,3.982E3,5.75E2,2.973E3,6.73E2,4E0,3.087E3,7.75E2,1.2415E4,2.739E3,3.845E3,7.267E3,3.187E3,2.871E3,1.97E2,1.05E3,9.02E2,2.3969E4,3.835E3,5.179E3,1.2376E4,7.386E3,1.7225E4,1.629E3,1.142E3,1.138E3,9.3037E4,1.781E4,4.277E3,1.013E3,2.433E3,5.03E2,1.87E3,4.89E2,7.11E2,1.1458E4],"tree_param":{"num_deleted":"0","num_feature":"13","num_nodes":"127","size_leaf_vector":"1"}},{"base_weights":[-1.8965924E-3,-1.6521591E1,6.3570933E0,-2.0625593E1,-6.457942E0,-1.1366536E1,7.853359E0,-2.3351242E1,-1.64557E1,-1.4335896E1,-2.1239648E0,-1.912397E1,-2.4972584E0,-8.6831284E-1,9.326954E0,-2.5151272E1,-2.1653019E1,-2.1932884E1,-1.4587104E1,-2.4083973E1,-1.2610361E1,-1.1760385E1,2.2532137E-1,-2.3117088E1,-1.5414558E1,-4.7422695E0,1.1677114E1,-9.132626E0,7.25762E0,9.964157E0,-9.490283E0,-2.588839E1,-2.4251137E1,-2.4538359E1,-2.053382E1,-2.3723873E1,-1.2916722E1,-1.959298E1,-1.2672248E1,-2.674645E1,-2.0512573E1,-1.1086856E1,-2.0726038E1,-5.6340094E0,-1.5197354E1,5.478058E0,-8.735744E0,-2.465665E1,-2.0905386E1,-1.5595134E1,1.6711949E0,-1.7404108E1,-3.1451707E0,6.7660832E0,1.4179072E1,-2.5999647E1,-3.5104585E0,-1.8034176E1,1.1589861E1,1.0771563E1,4.5790744E0,-1.9926931E1,1.0920129E1,-2.6472092E0,-2.551264E0,-2.5399044E0,-2.3459895E0,-2.5834296E0,-2.1485295E0,-2.2617767E0,-1.9298571E0,-2.5621052E0,-1.9770113E0,-3.4138374E-2,-1.4426932E0,-3.1802359E0,-1.8435339E0,-1.4784435E0,-5.8218926E-1,-2.6882281E0,-1.9519541E0,-1.9202868E0,-2.8637962E0,-9.71264E-1,-1.7832606E0,-3.1371877E0,-1.867329E0,-1.83983E0,-3.6102295E-1,-2.0648177E0,-1.0271552E0,8.653104E-1,-1.3140248E0,-1.6845036E0,3.2483682E-1,-2.6509004E0,-2.4083025E0,-2.2240388E0,-1.8549795E0,-1.7478075E0,-1.3191322E0,-2.3550785E0,1.496978E0,-4.364718E-1,1.067617E0,5.588904E-1,1.1522067E0,2.1995436E-1,1.4934769E0,-3.0815835E0,1.6366039E-1,6.653209E-2,-2.261208E0,-2.2180247E0,2.0073812E0,2.3473623E0,8.83996E-1,6.737045E-1,1.1868922E0,-7.754432E-1,9.8502636E-1,1.4076433E0,-2.2086983E0,-3.9840305E-1,1.1766833E0],"categories":[],"categories_nodes":[],"categories_segments":[],"categories_sizes":[],"default_left":[0,0,0,0,0,0,0,0,0,0,0,0,0,0,0,0,0,0,0,0,0,0,0,0,0,0,0,0,0,0,0,0,0,0,0,0,0,0,0,0,0,0,0,0,0,0,0,0,0,0,0,0,0,0,0,0,0,0,0,0,0,0,0,0,0,0,0,0,0,0,0,0,0,0,0,0,0,0,0,0,0,0,0,0,0,0,0,0,0,0,0,0,0,0,0,0,0,0,0,0,0,0,0,0,0,0,0,0,0,0,0,0,0,0,0,0,0,0,0,0,0,0,0,0,0],"id":9,"left_children":[1,3,5,7,9,11,13,15,17,19,21,23,25,27,29,31,33,35,37,39,41,43,45,47,49,51,53,55,57,59,61,63,65,67,69,71,73,75,77,79,81,83,85,87,89,91,93,95,97,99,-1,101,103,105,107,109,111,113,115,117,119,121,123,-1,-1,-1,-1,-1,-1,-1,-1,-1,-1,-1,-1,-1,-1,-1,-1,-1,-1,-1,-1,-1,-1,-1,-1,-1,-1,-1,-1,-1,-1,-1,-1,-1,-1,-1,-1,-1,-1,-1,-1,-1,-1,-1,-1,-1,-1,-1,-1,-1,-1,-1,-1,-1,-1,-1,-1,-1,-1,-1,-1,-1,-1],"loss_changes":[3.5667036E7,3.897464E6,6.501525E6,7.6149E5,9.333674E5,1.3131228E6,2.90556E6,1.23362E5,2.708985E5,1.6289012E5,3.9928153E5,1.5044625E5,2.834587E5,2.1944985E6,2.319016E6,1.2425E4,6.6872E4,1.0851375E5,1.891815E5,1.33151875E4,1.01713625E5,7.270556E4,6.675492E5,1.617275E4,3.0897E4,1.554338E5,1.4869875E4,1.536237E6,1.8055966E6,8.13294E5,1.349676E6,1.693E3,7.4625E3,2.2496E4,3.82765E4,4.165675E4,2.1246469E4,7.66705E4,2.067805E5,2.92E2,6.1225312E3,6.41985E4,2.7867125E4,3.2068719E4,5.9233062E4,5.2865175E5,5.093891E5,2.426125E3,5.9335E3,2.3541125E4,0E0,1.7168448E5,1.151547E5,2.2478438E3,7.2637812E3,5.391105E5,9.693091E5,3.812215E5,4.59523E5,7.20124E5,1.585855E6,3.08209E5,2.7102922E4,0E0,0E0,0E0,0E0,0E0,0E0,0E0,0E0,0E0,0E0,0E0,0E0,0E0,0E0,0E0,0E0,0E0,0E0,0E0,0E0,0E0,0E0,0E0,0E0,0E0,0E0,0E0,0E0,0E0,0E0,0E0,0E0,0E0,0E0,0E0,0E0,0E0,0E0,0E0,0E0,0E0,0E0,0E0,0E0,0E0,0E0,0E0,0E0,0E0,0E0,0E0,0E0,0E0,0E0,0E0,0E0,0E0,0E0,0E0,0E0,0E0,0E0],"parents":[2147483647,0,0,1,1,2,2,3,3,4,4,5,5,6,6,7,7,8,8,9,9,10,10,11,11,12,12,13,13,14,14,15,15,16,16,17,17,18,18,19,19,20,20,21,21,22,22,23,23,24,24,25,25,26,26,27,27,28,28,29,29,30,30,31,31,32,32,33,33,34,34,35,35,36,36,37,37,38,38,39,39,40,40,41,41,42,42,43,43,44,44,45,45,46,46,47,47,48,48,49,49,51,51,52,52,53,53,54,54,55,55,56,56,57,57,58,58,59,59,60,60,61,61,62,62],"right_children":[2,4,6,8,10,12,14,16,18,20,22,24,26,28,30,32,34,36,38,40,42,44,46,48,50,52,54,56,58,60,62,64,66,68,70,72,74,76,78,80,82,84,86,88,90,92,94,96,98,100,-1,102,104,106,108,110,112,114,116,118,120,122,124,-1,-1,-1,-1,-1,-1,-1,-1,-1,-1,-1,-1,-1,-1,-1,-1,-1,-1,-1,-1,-1,-1,-1,-1,-1,-1,-1,-1,-1,-1,-1,-1,-1,-1,-1,-1,-1,-1,-1,-1,-1,-1,-1,-1,-1,-1,-1,-1,-1,-1,-1,-1,-1,-1,-1,-1,-1,-1,-1,-1,-1,-1],"split_conditions":[1.1979211E1,3.828288E2,1.1593947E2,3.8440652E0,6.4727116E0,1.7216154E2,5.504688E2,1.4983191E0,2E0,2.668514E0,1.16312386E2,7.672286E1,0E0,4E0,1.213E3,7.4710125E-1,2E0,2.334768E2,3E0,3E0,4.0003845E1,3.996521E1,1.1638398E2,3.52E2,3.9409798E1,7.580376E2,1.2E0,1.1899392E2,3E0,4.010424E1,6E0,2.4585542E-1,1.8288E1,5E0,3.9968964E1,1.1633279E2,-1.11E1,5E1,3.9989014E1,4.6E0,9.11352E2,1.9015915E1,1.17841995E2,1.1627186E2,1.1630732E2,5E0,1.4E1,1.514856E2,2.3167084E1,3E0,1.6711949E0,2.2667746E1,2.1933408E3,1.7885664E3,2.090928E2,1.6E1,2.57E1,7.806045E2,8E0,2.646016E1,7E0,4.071494E1,1.619293E1,-2.6472092E0,-2.551264E0,-2.5399044E0,-2.3459895E0,-2.5834296E0,-2.1485295E0,-2.2617767E0,-1.9298571E0,-2.5621052E0,-1.9770113E0,-3.4138374E-2,-1.4426932E0,-3.1802359E0,-1.8435339E0,-1.4784435E0,-5.8218926E-1,-2.6882281E0,-1.9519541E0,-1.9202868E0,-2.8637962E0,-9.71264E-1,-1.7832606E0,-3.1371877E0,-1.867329E0,-1.83983E0,-3.6102295E-1,-2.0648177E0,-1.0271552E0,8.653104E-1,-1.3140248E0,-1.6845036E0,3.2483682E-1,-2.6509004E0,-2.4083025E0,-2.2240388E0,-1.8549795E0,-1.7478075E0,-1.3191322E0,-2.3550785E0,1.496978E0,-4.364718E-1,1.067617E0,5.588904E-1,1.1522067E0,2.1995436E-1,1.4934769E0,-3.0815835E0,1.6366039E-1,6.653209E-2,-2.261208E0,-2.2180247E0,2.0073812E0,2.3473623E0,8.83996E-1,6.737045E-1,1.1868922E0,-7.754432E-1,9.8502636E-1,1.4076433E0,-2.2086983E0,-3.9840305E-1,1.1766833E0],"split_indices":[7,8,1,7,7,7,8,7,9,7,1,7,4,5,2,7,9,8,3,5,0,0,1,8,0,8,4,8,3,0,3,7,8,5,0,1,4,2,0,4,8,10,1,1,1,5,3,8,0,3,0,0,8,8,8,3,4,7,3,7,3,0,7,0,0,0,0,0,0,0,0,0,0,0,0,0,0,0,0,0,0,0,0,0,0,0,0,0,0,0,0,0,0,0,0,0,0,0,0,0,0,0,0,0,0,0,0,0,0,0,0,0,0,0,0,0,0,0,0,0,0,0,0,0,0],"split_type":[0,0,0,0,0,0,0,0,0,0,0,0,0,0,0,0,0,0,0,0,0,0,0,0,0,0,0,0,0,0,0,0,0,0,0,0,0,0,0,0,0,0,0,0,0,0,0,0,0,0,0,0,0,0,0,0,0,0,0,0,0,0,0,0,0,0,0,0,0,0,0,0,0,0,0,0,0,0,0,0,0,0,0,0,0,0,0,0,0,0,0,0,0,0,0,0,0,0,0,0,0,0,0,0,0,0,0,0,0,0,0,0,0,0,0,0,0,0,0,0,0,0,0,0,0],"sum_hessian":[3.39527E5,9.4369E4,2.45158E5,6.7032E4,2.7337E4,1.9085E4,2.26073E5,4.0533E4,2.6499E4,9.701E3,1.7636E4,1.018E4,8.905E3,3.2676E4,1.93397E5,1.967E4,2.0863E4,6.738E3,1.9761E4,1.457E3,8.244E3,3.456E3,1.418E4,4.9E3,5.28E3,7.688E3,1.217E3,1.62E4,1.6476E4,1.87063E5,6.334E3,1.0799E4,8.871E3,5.825E3,1.5038E4,5.62E3,1.118E3,5.465E3,1.4296E4,8.31E2,6.26E2,6.943E3,1.301E3,1.243E3,2.213E3,8.94E3,5.24E3,2.883E3,2.017E3,5.251E3,2.9E1,8.6E2,6.828E3,4.12E2,8.05E2,4.049E3,1.2151E4,2.409E3,1.4067E4,1.62672E5,2.4391E4,4.191E3,2.143E3,4.202E3,6.597E3,3.607E3,5.264E3,4.084E3,1.741E3,5.59E3,9.448E3,3.794E3,1.826E3,1.2E2,9.98E2,4.71E2,4.994E3,1.0926E4,3.37E3,8.13E2,1.8E1,5.42E2,8.4E1,5.77E3,1.173E3,2.08E2,1.093E3,1.69E2,1.074E3,1.049E3,1.164E3,7.638E3,1.302E3,3.125E3,2.115E3,6.71E2,2.212E3,1.282E3,7.35E2,2.941E3,2.31E3,7.23E2,1.37E2,6.275E3,5.53E2,3.32E2,8E1,4.8E1,7.57E2,3.448E3,6.01E2,9.972E3,2.179E3,2.173E3,2.36E2,2.642E3,1.1425E4,3.4786E4,1.27886E5,7.303E3,1.7088E4,2.5E2,3.941E3,1.15E2,2.028E3],"tree_param":{"num_deleted":"0","num_feature":"13","num_nodes":"125","size_leaf_vector":"1"}},{"base_weights":[-1.8937818E-3,-1.685391E1,5.0618634E0,-2.062694E1,-1.1691723E1,-3.4240937E0,8.127708E0,-2.2288237E1,-1.8504103E1,-1.57712555E1,-7.624763E0,2.583431E-1,-1.4088577E1,4.6896605E0,1.0171571E1,-2.3209995E1,-2.1442793E1,-2.0209282E1,-1.5502645E1,-1.3290242E1,-1.9298403E1,-5.361143E0,-1.2216313E1,-4.366185E0,5.7501802E0,-1.6464182E1,7.214585E0,7.182759E0,-5.421246E0,1.246197E1,9.142697E0,-2.371753E0,-2.2787159E1,-2.3249386E1,-2.0634684E1,-2.1013966E1,-1.4233551E1,-1.3064577E1,-2.001499E1,-1.5358851E1,-4.207606E0,-1.2793769E1,-2.044269E1,-1.2514715E1,-2.202932E0,-1.9398254E1,-8.387885E0,-1.9519987E0,-1.8484825E1,-1.5604935E1,8.296726E0,-1.6940598E1,1.188979E1,-1.7375763E1,1.60931E1,-3.2611885E0,1.0114486E1,-1.4254797E1,3.7154112E0,3.9739609E0,1.2919697E1,9.864546E-1,1.0388611E1,-2.2462938E0,-2.4448602E0,-2.3786743E0,-2.0946739E0,-2.001437E0,-2.3205526E0,-2.3181703E0,-1.9824294E0,-1.0336599E0,-2.2591636E0,-1.7234911E0,-1.1557723E0,-2.7471933E0,-1.8452793E0,-1.8331114E0,-1.1179464E0,-6.6968846E-1,2.4089873E0,-1.9013842E0,-7.161582E-1,-2.2550218E0,-1.8455784E0,-1.8311262E0,-9.8748016E-1,1.4337555E-1,-9.727234E-1,-1.5163155E0,-2.6310616E0,-1.0430522E0,2.5585648E-1,2.1530905E-1,-1.429242E0,-2.4583268E0,-3.170447E-1,-3.0320072E0,-5.3365695E-1,-4.6957302E-1,1.0290836E0,-1.6264057E0,-3.244436E0,-2.9617877E0,1.9400564E0,-2.2604218E0,-6.8753403E-1,-1.4350756E0,1.7160828E0,9.607735E-2,-2.3225064E0,4.651135E-2,1.1348041E0,-1.674099E0,-3.781221E-1,-2.5481838E-1,1.3895601E0,-8.393449E-1,7.996405E-1,1.5003852E0,1.203904E0,9.174091E-1,-1.5442792E0,-4.232665E-1,1.0865934E0],"categories":[],"categories_nodes":[],"categories_segments":[],"categories_sizes":[],"default_left":[0,0,0,0,0,0,0,0,0,0,0,0,0,0,0,0,0,0,0,0,0,0,0,0,0,0,0,0,0,0,0,0,0,0,0,0,0,0,0,0,0,0,0,0,0,0,0,0,0,0,0,0,0,0,0,0,0,0,0,0,0,0,0,0,0,0,0,0,0,0,0,0,0,0,0,0,0,0,0,0,0,0,0,0,0,0,0,0,0,0,0,0,0,0,0,0,0,0,0,0,0,0,0,0,0,0,0,0,0,0,0,0,0,0,0,0,0,0,0,0,0,0,0,0,0],"id":10,"left_children":[1,3,5,7,9,11,13,15,17,19,21,23,25,27,29,31,33,35,37,39,41,43,45,47,49,51,53,55,57,59,61,-1,63,65,67,69,71,73,75,77,79,81,83,85,87,89,91,93,95,97,99,101,103,105,107,109,111,113,115,117,119,121,123,-1,-1,-1,-1,-1,-1,-1,-1,-1,-1,-1,-1,-1,-1,-1,-1,-1,-1,-1,-1,-1,-1,-1,-1,-1,-1,-1,-1,-1,-1,-1,-1,-1,-1,-1,-1,-1,-1,-1,-1,-1,-1,-1,-1,-1,-1,-1,-1,-1,-1,-1,-1,-1,-1,-1,-1,-1,-1,-1,-1,-1,-1],"loss_changes":[2.8973542E7,1.527736E6,6.7924235E6,1.59422E5,5.49533E5,2.7211505E6,1.347634E6,1.9312E4,1.01551E5,1.44466E5,1.7238394E5,1.3081565E6,9.0018E5,1.8025756E6,2.83334E5,2.0665E3,1.88965E4,6.0717E4,7.9113625E4,1.8240862E5,5.055275E4,2.5108797E5,1.5045781E5,9.530496E5,1.2806028E6,2.16347E5,3.8999106E5,1.7564502E6,1.1416836E6,1.447925E5,8.434535E5,0E0,3.03475E3,4.5675E3,1.417375E4,2.8375E4,4.8916188E4,2.9254312E4,2.8954E4,9.8054875E4,1.271652E5,3.573725E4,2.388775E4,5.1908438E4,2.1104152E5,5.5339812E4,7.996233E4,1.2097565E6,3.8124912E5,3.7894906E5,5.451091E5,1.645365E5,8.318961E4,2.5867672E4,4.2893875E4,1.0598435E6,5.331435E5,1.872115E5,4.4345438E5,9.503455E4,6.47435E4,1.4798252E6,5.0256E5,0E0,0E0,0E0,0E0,0E0,0E0,0E0,0E0,0E0,0E0,0E0,0E0,0E0,0E0,0E0,0E0,0E0,0E0,0E0,0E0,0E0,0E0,0E0,0E0,0E0,0E0,0E0,0E0,0E0,0E0,0E0,0E0,0E0,0E0,0E0,0E0,0E0,0E0,0E0,0E0,0E0,0E0,0E0,0E0,0E0,0E0,0E0,0E0,0E0,0E0,0E0,0E0,0E0,0E0,0E0,0E0,0E0,0E0,0E0,0E0,0E0,0E0],"parents":[2147483647,0,0,1,1,2,2,3,3,4,4,5,5,6,6,7,7,8,8,9,9,10,10,11,11,12,12,13,13,14,14,15,15,16,16,17,17,18,18,19,19,20,20,21,21,22,22,23,23,24,24,25,25,26,26,27,27,28,28,29,29,30,30,32,32,33,33,34,34,35,35,36,36,37,37,38,38,39,39,40,40,41,41,42,42,43,43,44,44,45,45,46,46,47,47,48,48,49,49,50,50,51,51,52,52,53,53,54,54,55,55,56,56,57,57,58,58,59,59,60,60,61,61,62,62],"right_children":[2,4,6,8,10,12,14,16,18,20,22,24,26,28,30,32,34,36,38,40,42,44,46,48,50,52,54,56,58,60,62,-1,64,66,68,70,72,74,76,78,80,82,84,86,88,90,92,94,96,98,100,102,104,106,108,110,112,114,116,118,120,122,124,-1,-1,-1,-1,-1,-1,-1,-1,-1,-1,-1,-1,-1,-1,-1,-1,-1,-1,-1,-1,-1,-1,-1,-1,-1,-1,-1,-1,-1,-1,-1,-1,-1,-1,-1,-1,-1,-1,-1,-1,-1,-1,-1,-1,-1,-1,-1,-1,-1,-1,-1,-1,-1,-1,-1,-1,-1,-1,-1,-1,-1,-1],"split_conditions":[9.234481E0,4.006172E0,8.522208E2,1.9847449E0,2.953512E2,4.697633E1,8E0,8.5243344E-1,1.95E2,1.7735168E1,1.1634713E2,1.9398306E1,1.8E1,4.006982E1,3E0,3.3297178E-1,3.9948566E1,3.999187E1,3.27E2,3.998755E1,2E0,1.16312675E2,1.17841995E2,1.164225E2,-2E0,2.6516437E2,2.9523237E1,1.380744E3,6E0,1.1494027E2,2.1652088E1,-2.371753E0,4.0038403E1,1.1763616E2,2.0361298E1,2E0,4.003228E1,2.668514E0,2E0,6.4727116E0,2.3E1,3.7154565E2,1.41E2,-1E0,4E0,5.279136E2,5E0,1.2E1,1.1E1,6E0,2E0,4.065852E1,-2E0,1.162728E2,3.9817295E1,1.63E1,3.916781E1,2E0,2E0,1E1,1.7410176E3,2.27E1,3.4235352E3,-2.2462938E0,-2.4448602E0,-2.3786743E0,-2.0946739E0,-2.001437E0,-2.3205526E0,-2.3181703E0,-1.9824294E0,-1.0336599E0,-2.2591636E0,-1.7234911E0,-1.1557723E0,-2.7471933E0,-1.8452793E0,-1.8331114E0,-1.1179464E0,-6.6968846E-1,2.4089873E0,-1.9013842E0,-7.161582E-1,-2.2550218E0,-1.8455784E0,-1.8311262E0,-9.8748016E-1,1.4337555E-1,-9.727234E-1,-1.5163155E0,-2.6310616E0,-1.0430522E0,2.5585648E-1,2.1530905E-1,-1.429242E0,-2.4583268E0,-3.170447E-1,-3.0320072E0,-5.3365695E-1,-4.6957302E-1,1.0290836E0,-1.6264057E0,-3.244436E0,-2.9617877E0,1.9400564E0,-2.2604218E0,-6.8753403E-1,-1.4350756E0,1.7160828E0,9.607735E-2,-2.3225064E0,4.651135E-2,1.1348041E0,-1.674099E0,-3.781221E-1,-2.5481838E-1,1.3895601E0,-8.393449E-1,7.996405E-1,1.5003852E0,1.203904E0,9.174091E-1,-1.5442792E0,-4.232665E-1,1.0865934E0],"split_indices":[7,7,8,7,8,10,3,7,8,10,1,7,3,0,5,7,0,0,2,0,5,1,1,1,4,7,7,8,3,1,7,0,0,1,10,9,0,7,5,7,3,11,2,4,5,8,5,3,3,3,5,0,4,1,0,4,0,9,5,3,8,4,11,0,0,0,0,0,0,0,0,0,0,0,0,0,0,0,0,0,0,0,0,0,0,0,0,0,0,0,0,0,0,0,0,0,0,0,0,0,0,0,0,0,0,0,0,0,0,0,0,0,0,0,0,0,0,0,0,0,0,0,0,0,0],"split_type":[0,0,0,0,0,0,0,0,0,0,0,0,0,0,0,0,0,0,0,0,0,0,0,0,0,0,0,0,0,0,0,0,0,0,0,0,0,0,0,0,0,0,0,0,0,0,0,0,0,0,0,0,0,0,0,0,0,0,0,0,0,0,0,0,0,0,0,0,0,0,0,0,0,0,0,0,0,0,0,0,0,0,0,0,0,0,0,0,0,0,0,0,0,0,0,0,0,0,0,0,0,0,0,0,0,0,0,0,0,0,0,0,0,0,0,0,0,0,0,0,0,0,0,0,0],"sum_hessian":[3.39527E5,7.8449E4,2.61078E5,4.5321E4,3.3128E4,6.929E4,1.91788E5,2.5419E4,1.9902E4,1.6537E4,1.6591E4,5.1506E4,1.7784E4,7.1507E4,1.20281E5,1.2148E4,1.3271E4,1.2688E4,7.214E3,9.711E3,6.826E3,1.1114E4,5.477E3,2.7961E4,2.3545E4,1.6E4,1.784E3,5.7363E4,1.4144E4,3.728E4,8.3001E4,5.496E3,6.652E3,4.093E3,9.178E3,1.118E4,1.508E3,4.686E3,2.528E3,7.909E3,1.802E3,1.023E3,5.803E3,3.403E3,7.711E3,1.903E3,3.574E3,2.3879E4,4.082E3,2.508E3,2.1037E4,1.5736E4,2.64E2,4.73E2,1.311E3,1.2573E4,4.479E4,7.191E3,6.953E3,1.908E3,3.5372E4,1.0999E4,7.2002E4,5.578E3,1.074E3,3.311E3,7.82E2,7.401E3,1.777E3,3.955E3,7.225E3,1.03E3,4.78E2,1.241E3,3.445E3,4.35E2,2.093E3,4.62E3,3.289E3,1.657E3,1.45E2,4.85E2,5.38E2,2.811E3,2.992E3,1.063E3,2.34E3,5.199E3,2.512E3,1.182E3,7.21E2,3.012E3,5.62E2,1.7919E4,5.96E3,2.919E3,1.163E3,1.03E3,1.478E3,2.799E3,1.8238E4,1.508E4,6.56E2,4E1,2.24E2,3.15E2,1.58E2,4.4E1,1.267E3,1.0379E4,2.194E3,5.077E3,3.9713E4,5.811E3,1.38E3,4.305E3,2.648E3,4.68E2,1.44E3,1.0502E4,2.487E4,7.341E3,3.658E3,2.276E3,6.9726E4],"tree_param":{"num_deleted":"0","num_feature":"13","num_nodes":"125","size_leaf_vector":"1"}},{"base_weights":[-1.8875174E-3,-1.2954698E1,5.381845E0,-1.6321491E1,-4.0069494E0,-9.406067E0,6.6539435E0,-1.8927101E1,-1.2979748E1,-1.0348988E1,-6.720431E-1,-1.5482913E1,-1.818604E0,3.1148684E0,8.861952E0,-2.0333675E1,-1.7392553E1,-1.5770019E1,-9.9218445E0,-1.4617455E1,-7.3488197E0,9.571758E0,-2.690694E0,-1.9012476E1,-1.235789E1,-4.1195035E0,7.9968324E0,3.8800917E0,-1.8665852E1,-7.491464E0,9.014204E0,-2.1104013E1,-1.975192E1,-1.8575306E1,-1.50099E1,-1.9920593E1,-1.311593E1,-8.60263E0,-1.9069565E1,-1.5968186E1,-6.8827114E0,-1.732028E1,-6.140138E0,-6.921769E0,1.4980888E1,1.2581757E0,-1.6085613E1,-2.0622221E1,-1.7360147E1,-1.4495432E1,-9.670441E0,-1.7055948E0,-1.4426082E1,4.839034E0,1.1709355E1,-1.2630036E1,4.5104957E0,-1.9559591E1,1.2068799E1,8.935417E0,-1.7540413E1,1.0153376E1,7.4065843E0,-2.0860739E0,-2.231704E0,-2.095439E0,-1.9180752E0,-2.116091E0,-1.7670027E0,-1.3287607E0,-1.812643E0,-2.1572187E0,-1.5721157E0,-1.0529463E0,-1.7102759E0,-1.5260581E0,-6.875418E-1,-2.291164E0,-1.2669876E0,-1.9402676E0,-1.4487222E0,-1.296807E0,1.0410781E-1,-1.9629852E-1,-1.830403E0,-3.1183976E-1,-1.1492784E0,-1.4899231E0,-4.874207E-1,2.9172197E-1,2.2885911E0,8.437358E-1,-6.558632E-1,-2.385504E0,-9.540648E-1,-1.959617E0,-2.137966E0,-1.8014907E0,-1.3594818E0,-1.5679964E0,-1.1486886E0,-9.932305E-1,1.3644246E0,-4.5964533E-1,3.4090757E-1,-2.1865342E0,-9.303131E-1,3.3326516E-1,1.4990811E0,1.0959768E0,1.4569672E0,6.9877915E-2,-2.0757215E0,-2.1388304E-1,6.0768455E-1,-1.6999367E0,-2.5005043E0,4.0355158E-1,1.442748E0,1.902685E0,-1.3640374E-1,-2.678834E-1,-2.7149217E0,1.028144E0,-9.010869E-1,4.7942955E-2,8.896989E-1],"categories":[],"categories_nodes":[],"categories_segments":[],"categories_sizes":[],"default_left":[0,0,0,0,0,0,0,0,0,0,0,0,0,0,0,0,0,0,0,0,0,0,0,0,0,0,0,0,0,0,0,0,0,0,0,0,0,0,0,0,0,0,0,0,0,0,0,0,0,0,0,0,0,0,0,0,0,0,0,0,0,0,0,0,0,0,0,0,0,0,0,0,0,0,0,0,0,0,0,0,0,0,0,0,0,0,0,0,0,0,0,0,0,0,0,0,0,0,0,0,0,0,0,0,0,0,0,0,0,0,0,0,0,0,0,0,0,0,0,0,0,0,0,0,0,0,0],"id":11,"left_children":[1,3,5,7,9,11,13,15,17,19,21,23,25,27,29,31,33,35,37,39,41,43,45,47,49,51,53,55,57,59,61,63,65,67,69,71,73,75,77,79,81,83,85,87,89,91,93,95,97,99,101,103,105,107,109,111,113,115,117,119,121,123,125,-1,-1,-1,-1,-1,-1,-1,-1,-1,-1,-1,-1,-1,-1,-1,-1,-1,-1,-1,-1,-1,-1,-1,-1,-1,-1,-1,-1,-1,-1,-1,-1,-1,-1,-1,-1,-1,-1,-1,-1,-1,-1,-1,-1,-1,-1,-1,-1,-1,-1,-1,-1,-1,-1,-1,-1,-1,-1,-1,-1,-1,-1,-1,-1],"loss_changes":[2.3676874E7,3.003057E6,4.511876E6,6.30448E5,5.7646025E5,8.759285E5,1.725714E6,8.7489E4,2.706355E5,1.2018044E5,3.694294E5,1.1612025E5,1.9087053E5,1.4142606E6,3.38675E5,9.097E3,5.45895E4,1.8252725E5,1.8260312E5,4.0384812E4,6.639831E4,2.624869E5,7.8942206E5,1.281325E4,3.201775E4,1.7029797E5,1.8759398E4,8.532044E5,7.934606E4,2.0732319E5,2.46686E5,2.22525E3,7.9155E3,3.00715E4,3.445525E4,4.453525E4,1.042165E5,1.5212794E5,4.662375E4,1.6498812E4,2.7884143E4,8.968281E3,7.9590266E4,1.1802445E4,2.1116356E5,6.469309E5,1.7256281E5,1.52625E3,5.7953125E3,1.09244375E4,1.5294969E4,8.204722E4,4.930275E4,1.3239191E4,1.4204844E3,3.2661647E5,8.2235325E5,3.85975E4,1.4955088E3,4.960355E4,1.11170016E5,1.9363E5,5.7696725E5,0E0,0E0,0E0,0E0,0E0,0E0,0E0,0E0,0E0,0E0,0E0,0E0,0E0,0E0,0E0,0E0,0E0,0E0,0E0,0E0,0E0,0E0,0E0,0E0,0E0,0E0,0E0,0E0,0E0,0E0,0E0,0E0,0E0,0E0,0E0,0E0,0E0,0E0,0E0,0E0,0E0,0E0,0E0,0E0,0E0,0E0,0E0,0E0,0E0,0E0,0E0,0E0,0E0,0E0,0E0,0E0,0E0,0E0,0E0,0E0,0E0,0E0,0E0,0E0],"parents":[2147483647,0,0,1,1,2,2,3,3,4,4,5,5,6,6,7,7,8,8,9,9,10,10,11,11,12,12,13,13,14,14,15,15,16,16,17,17,18,18,19,19,20,20,21,21,22,22,23,23,24,24,25,25,26,26,27,27,28,28,29,29,30,30,31,31,32,32,33,33,34,34,35,35,36,36,37,37,38,38,39,39,40,40,41,41,42,42,43,43,44,44,45,45,46,46,47,47,48,48,49,49,50,50,51,51,52,52,53,53,54,54,55,55,56,56,57,57,58,58,59,59,60,60,61,61,62,62],"right_children":[2,4,6,8,10,12,14,16,18,20,22,24,26,28,30,32,34,36,38,40,42,44,46,48,50,52,54,56,58,60,62,64,66,68,70,72,74,76,78,80,82,84,86,88,90,92,94,96,98,100,102,104,106,108,110,112,114,116,118,120,122,124,126,-1,-1,-1,-1,-1,-1,-1,-1,-1,-1,-1,-1,-1,-1,-1,-1,-1,-1,-1,-1,-1,-1,-1,-1,-1,-1,-1,-1,-1,-1,-1,-1,-1,-1,-1,-1,-1,-1,-1,-1,-1,-1,-1,-1,-1,-1,-1,-1,-1,-1,-1,-1,-1,-1,-1,-1,-1,-1,-1,-1,-1,-1,-1,-1],"split_conditions":[1.3180943E1,4.3805856E2,1.1593947E2,3.6937315E0,7.052673E0,1.8263809E2,1.43508125E4,1.6072096E0,3E0,4.891047E0,3.9908916E1,7.881673E1,1E1,4.0987804E1,3.52E2,9E0,1.7102328E2,5.369578E2,2.1306986E1,3.05E1,2E0,4.9E0,1.1636083E2,4.8661186E1,3E0,1.0276652E3,1.2E1,1E0,5E0,3.9960655E1,1.1638398E2,2.3684996E1,-1.5E0,3E-1,3.1E2,1.41E2,1.1637017E2,3.988889E1,1.469136E2,3.1409893E0,3.9990147E1,2E0,1.1634713E2,3.1876898E1,9.660556E0,4E0,1.17841995E2,1.15627556E2,5.650687E2,1.4922325E2,3.9409798E1,2.526473E2,5.504688E2,2.2590263E1,2.2667746E1,3.6484924E2,1.9398306E1,1.743E3,1.51E3,4E0,2.3E1,1.928528E3,1.476756E3,-2.0860739E0,-2.231704E0,-2.095439E0,-1.9180752E0,-2.116091E0,-1.7670027E0,-1.3287607E0,-1.812643E0,-2.1572187E0,-1.5721157E0,-1.0529463E0,-1.7102759E0,-1.5260581E0,-6.875418E-1,-2.291164E0,-1.2669876E0,-1.9402676E0,-1.4487222E0,-1.296807E0,1.0410781E-1,-1.9629852E-1,-1.830403E0,-3.1183976E-1,-1.1492784E0,-1.4899231E0,-4.874207E-1,2.9172197E-1,2.2885911E0,8.437358E-1,-6.558632E-1,-2.385504E0,-9.540648E-1,-1.959617E0,-2.137966E0,-1.8014907E0,-1.3594818E0,-1.5679964E0,-1.1486886E0,-9.932305E-1,1.3644246E0,-4.5964533E-1,3.4090757E-1,-2.1865342E0,-9.303131E-1,3.3326516E-1,1.4990811E0,1.0959768E0,1.4569672E0,6.9877915E-2,-2.0757215E0,-2.1388304E-1,6.0768455E-1,-1.6999367E0,-2.5005043E0,4.0355158E-1,1.442748E0,1.902685E0,-1.3640374E-1,-2.678834E-1,-2.7149217E0,1.028144E0,-9.010869E-1,4.7942955E-2,8.896989E-1],"split_indices":[7,8,1,7,7,7,11,7,9,7,0,7,3,0,8,8,8,11,10,4,9,4,1,7,3,7,3,3,3,0,1,10,4,4,2,2,1,0,8,7,0,3,1,0,7,5,1,1,8,7,0,7,8,0,0,7,7,2,8,5,2,7,8,0,0,0,0,0,0,0,0,0,0,0,0,0,0,0,0,0,0,0,0,0,0,0,0,0,0,0,0,0,0,0,0,0,0,0,0,0,0,0,0,0,0,0,0,0,0,0,0,0,0,0,0,0,0,0,0,0,0,0,0,0,0,0,0],"split_type":[0,0,0,0,0,0,0,0,0,0,0,0,0,0,0,0,0,0,0,0,0,0,0,0,0,0,0,0,0,0,0,0,0,0,0,0,0,0,0,0,0,0,0,0,0,0,0,0,0,0,0,0,0,0,0,0,0,0,0,0,0,0,0,0,0,0,0,0,0,0,0,0,0,0,0,0,0,0,0,0,0,0,0,0,0,0,0,0,0,0,0,0,0,0,0,0,0,0,0,0,0,0,0,0,0,0,0,0,0,0,0,0,0,0,0,0,0,0,0,0,0,0,0,0,0,0,0],"sum_hessian":[3.39527E5,9.9687E4,2.3984E5,7.2432E4,2.7255E4,1.8997E4,2.20843E5,4.0696E4,3.1736E4,9.392E3,1.7863E4,1.0548E4,8.449E3,8.4848E4,1.35995E5,2.1227E4,1.9469E4,1.6592E4,1.5144E4,3.875E3,5.517E3,2.94E3,1.4923E4,4.951E3,5.597E3,6.845E3,1.604E3,8.1969E4,2.879E3,1.254E3,1.34741E5,9.118E3,1.2109E4,1.3006E4,6.463E3,6.469E3,1.0123E4,1.3237E4,1.907E3,3.298E3,5.77E2,5.95E2,4.922E3,7.26E2,2.214E3,1.1526E4,3.397E3,2.502E3,2.449E3,3.115E3,2.482E3,5.547E3,1.298E3,8.68E2,7.36E2,3.014E3,7.8955E4,2.798E3,8.1E1,4.76E2,7.78E2,7.8857E4,5.5884E4,7.61E3,1.508E3,3.888E3,8.221E3,3.367E3,9.639E3,4.166E3,2.297E3,4.64E3,1.829E3,6.142E3,3.981E3,2.725E3,1.0512E4,1.19E3,7.17E2,9.9E2,2.308E3,3.26E2,2.51E2,3.6E1,5.59E2,3.147E3,1.775E3,1.47E2,5.79E2,8.77E2,1.337E3,6.008E3,5.518E3,1.552E3,1.845E3,1.074E3,1.428E3,2.083E3,3.66E2,2.232E3,8.83E2,2.455E3,2.7E1,3.544E3,2.003E3,5.28E2,7.7E2,7.57E2,1.11E2,5.87E2,1.49E2,1.142E3,1.872E3,1.5053E4,6.3902E4,1.906E3,8.92E2,1.9E1,6.2E1,2.4E2,2.36E2,3.06E2,4.72E2,7.8334E4,5.23E2,9.895E3,4.5989E4],"tree_param":{"num_deleted":"0","num_feature":"13","num_nodes":"127","size_leaf_vector":"1"}},{"base_weights":[-1.8483753E-3,-1.1771572E1,4.79764E0,-1.4961074E1,-4.398452E0,-8.482698E0,5.9347253E0,-1.7030394E1,-1.1977478E1,-1.19874935E1,-1.8839959E0,-1.411359E1,-1.8215712E0,-4.871497E-1,6.990824E0,-1.8433458E1,-1.5821056E1,-1.6309887E1,-1.0531061E1,-1.7796919E1,-1.0558082E1,-9.06466E0,-7.562966E-2,-1.7059881E1,-1.12161455E1,-4.1935554E0,6.1289787E0,-7.6429935E0,6.6037955E0,7.4748516E0,-7.240269E0,-1.8007383E1,-1.9500982E1,-1.7404408E1,-1.4078653E1,-7.575071E0,-1.7237114E1,-1.5939475E1,-9.178253E0,-1.9955086E1,-1.4904745E1,-8.806101E0,-1.5339086E1,-1.2196085E1,-5.5423326E0,3.8570795E0,-6.3679533E0,-1.8095755E1,-1.479739E1,-1.3133287E1,-8.8194275E0,1.3328488E1,-5.1594586E0,2.052213E0,1.0207767E1,-2.2381739E1,-3.0211525E0,-1.4467764E1,1.0517358E1,8.108507E0,3.265559E0,-1.5144307E1,8.406184E0,-1.8663346E0,-1.6889433E0,-2.0062742E0,-1.7386059E0,-1.6637179E0,-1.9114094E0,-1.3076286E0,-1.7388779E0,-1.3698639E0,2.1224534E-2,9.719112E-2,-1.7608286E0,-9.3097395E-1,-2.0844321E0,-1.2422317E0,-6.144497E-1,-2.310594E0,-1.9463218E0,-1.3737317E0,-2.2187202E0,-2.4557137E0,-8.436862E-1,-1.4330541E0,-3.3250244E0,-1.392818E0,-3.909602E-1,-6.383436E-1,7.892364E-1,6.604679E-1,-1.0020958E0,2.6892582E-1,-1.4019535E0,-1.950734E0,-1.7428524E0,-1.6196148E0,-1.2003548E0,-1.3963169E0,-1.0244297E0,-9.0458935E-1,1.2277709E0,1.5149035E0,2.5690177E-1,-1.8336891E0,-3.6079943E-1,1.4184965E-1,5.1057017E-1,9.417961E-1,1.4123851E0,-2.715359E0,2.59034E-1,7.245906E-2,-2.0194907E0,-1.7761921E0,1.6342827E0,1.4037068E0,1.1130109E-1,9.0527076E-1,5.154856E-1,-1.2769481E0,5.6757396E-1,1.1284823E0,-1.6832716E0,1.0238068E0,2.9361495E-1],"categories":[],"categories_nodes":[],"categories_segments":[],"categories_sizes":[],"default_left":[0,0,0,0,0,0,0,0,0,0,0,0,0,0,0,0,0,0,0,0,0,0,0,0,0,0,0,0,0,0,0,0,0,0,0,0,0,0,0,0,0,0,0,0,0,0,0,0,0,0,0,0,0,0,0,0,0,0,0,0,0,0,0,0,0,0,0,0,0,0,0,0,0,0,0,0,0,0,0,0,0,0,0,0,0,0,0,0,0,0,0,0,0,0,0,0,0,0,0,0,0,0,0,0,0,0,0,0,0,0,0,0,0,0,0,0,0,0,0,0,0,0,0,0,0,0,0],"id":12,"left_children":[1,3,5,7,9,11,13,15,17,19,21,23,25,27,29,31,33,35,37,39,41,43,45,47,49,51,53,55,57,59,61,63,65,67,69,71,73,75,77,79,81,83,85,87,89,91,93,95,97,99,101,103,105,107,109,111,113,115,117,119,121,123,125,-1,-1,-1,-1,-1,-1,-1,-1,-1,-1,-1,-1,-1,-1,-1,-1,-1,-1,-1,-1,-1,-1,-1,-1,-1,-1,-1,-1,-1,-1,-1,-1,-1,-1,-1,-1,-1,-1,-1,-1,-1,-1,-1,-1,-1,-1,-1,-1,-1,-1,-1,-1,-1,-1,-1,-1,-1,-1,-1,-1,-1,-1,-1,-1],"loss_changes":[1.9179534E7,2.312766E6,3.6420815E6,4.23648E5,5.66703E5,7.13453E5,1.5067155E6,6.8486E4,1.76029E5,6.1187375E4,2.8968772E5,8.7805125E4,1.6437822E5,1.5921219E6,1.314219E6,8.1805E3,5.9834E4,5.6855E4,1.5410825E5,8.803125E3,4.9569438E4,4.9434594E4,4.4104562E5,1.1706E4,2.3777375E4,1.1368363E5,3.3285453E4,1.0637645E6,1.2997985E6,4.92104E5,7.762812E5,9.526E3,5.994375E3,1.464225E4,3.419E4,3.2286438E4,4.300225E4,1.3693362E5,1.6592362E5,8.3971875E2,5.0258125E3,2.5062906E4,2.8245594E4,3.4033875E4,2.3938508E4,4.182902E5,4.751028E5,2.9565E3,6.0973125E3,6.7785938E3,1.1166891E4,6.8365117E3,1.30021016E5,1.9336094E3,2.9630234E3,4.4431012E5,7.648801E5,2.5088125E5,4.3995712E5,4.47192E5,9.331353E5,1.8626862E5,2.1083062E4,0E0,0E0,0E0,0E0,0E0,0E0,0E0,0E0,0E0,0E0,0E0,0E0,0E0,0E0,0E0,0E0,0E0,0E0,0E0,0E0,0E0,0E0,0E0,0E0,0E0,0E0,0E0,0E0,0E0,0E0,0E0,0E0,0E0,0E0,0E0,0E0,0E0,0E0,0E0,0E0,0E0,0E0,0E0,0E0,0E0,0E0,0E0,0E0,0E0,0E0,0E0,0E0,0E0,0E0,0E0,0E0,0E0,0E0,0E0,0E0,0E0,0E0,0E0,0E0],"parents":[2147483647,0,0,1,1,2,2,3,3,4,4,5,5,6,6,7,7,8,8,9,9,10,10,11,11,12,12,13,13,14,14,15,15,16,16,17,17,18,18,19,19,20,20,21,21,22,22,23,23,24,24,25,25,26,26,27,27,28,28,29,29,30,30,31,31,32,32,33,33,34,34,35,35,36,36,37,37,38,38,39,39,40,40,41,41,42,42,43,43,44,44,45,45,46,46,47,47,48,48,49,49,50,50,51,51,52,52,53,53,54,54,55,55,56,56,57,57,58,58,59,59,60,60,61,61,62,62],"right_children":[2,4,6,8,10,12,14,16,18,20,22,24,26,28,30,32,34,36,38,40,42,44,46,48,50,52,54,56,58,60,62,64,66,68,70,72,74,76,78,80,82,84,86,88,90,92,94,96,98,100,102,104,106,108,110,112,114,116,118,120,122,124,126,-1,-1,-1,-1,-1,-1,-1,-1,-1,-1,-1,-1,-1,-1,-1,-1,-1,-1,-1,-1,-1,-1,-1,-1,-1,-1,-1,-1,-1,-1,-1,-1,-1,-1,-1,-1,-1,-1,-1,-1,-1,-1,-1,-1,-1,-1,-1,-1,-1,-1,-1,-1,-1,-1,-1,-1,-1,-1,-1,-1,-1,-1,-1,-1],"split_conditions":[1.2885467E1,3.828288E2,1.1593947E2,3.8440652E0,5.7136335E0,1.7625089E2,5.650687E2,2.92608E1,2E0,2.668514E0,1.16312485E2,8.070384E1,1.9330416E3,4E0,1.213E3,1.2E1,1.9847449E0,2E0,2E0,3E0,1.1634713E2,1.0494024E1,1.1638398E2,6.016288E1,3E0,2E0,2.576779E2,1.1899392E2,3E0,4.010424E1,6E0,1.4983191E0,2.9E1,1.1634848E2,2.99E2,7E0,-1.05E1,3E0,1.83E1,2E0,9.11352E2,1E0,7.693152E2,1.0268712E3,5E0,5E0,3.993232E1,1.898904E2,3E0,1.5361081E2,3.9409798E1,3.5976795E1,6.495288E2,2.1933408E3,2.3460457E3,1.6E1,2.57E1,7.806045E2,1.1642607E2,2E1,3E0,4.071494E1,2.7E1,-1.8663346E0,-1.6889433E0,-2.0062742E0,-1.7386059E0,-1.6637179E0,-1.9114094E0,-1.3076286E0,-1.7388779E0,-1.3698639E0,2.1224534E-2,9.719112E-2,-1.7608286E0,-9.3097395E-1,-2.0844321E0,-1.2422317E0,-6.144497E-1,-2.310594E0,-1.9463218E0,-1.3737317E0,-2.2187202E0,-2.4557137E0,-8.436862E-1,-1.4330541E0,-3.3250244E0,-1.392818E0,-3.909602E-1,-6.383436E-1,7.892364E-1,6.604679E-1,-1.0020958E0,2.6892582E-1,-1.4019535E0,-1.950734E0,-1.7428524E0,-1.6196148E0,-1.2003548E0,-1.3963169E0,-1.0244297E0,-9.0458935E-1,1.2277709E0,1.5149035E0,2.5690177E-1,-1.8336891E0,-3.6079943E-1,1.4184965E-1,5.1057017E-1,9.417961E-1,1.4123851E0,-2.715359E0,2.59034E-1,7.245906E-2,-2.0194907E0,-1.7761921E0,1.6342827E0,1.4037068E0,1.1130109E-1,9.0527076E-1,5.154856E-1,-1.2769481E0,5.6757396E-1,1.1284823E0,-1.6832716E0,1.0238068E0,2.9361495E-1],"split_indices":[7,8,1,7,7,7,8,8,9,7,1,7,8,5,2,3,7,5,3,5,1,7,1,7,3,5,7,8,3,0,3,7,4,1,2,3,4,5,4,5,8,3,8,8,5,5,0,8,3,7,0,0,8,8,8,3,4,7,1,4,3,0,4,0,0,0,0,0,0,0,0,0,0,0,0,0,0,0,0,0,0,0,0,0,0,0,0,0,0,0,0,0,0,0,0,0,0,0,0,0,0,0,0,0,0,0,0,0,0,0,0,0,0,0,0,0,0,0,0,0,0,0,0,0,0,0,0],"split_type":[0,0,0,0,0,0,0,0,0,0,0,0,0,0,0,0,0,0,0,0,0,0,0,0,0,0,0,0,0,0,0,0,0,0,0,0,0,0,0,0,0,0,0,0,0,0,0,0,0,0,0,0,0,0,0,0,0,0,0,0,0,0,0,0,0,0,0,0,0,0,0,0,0,0,0,0,0,0,0,0,0,0,0,0,0,0,0,0,0,0,0,0,0,0,0,0,0,0,0,0,0,0,0,0,0,0,0,0,0,0,0,0,0,0,0,0,0,0,0,0,0,0,0,0,0,0,0],"sum_hessian":[3.39527E5,9.8348E4,2.41179E5,6.865E4,2.9698E4,1.9021E4,2.22158E5,4.0533E4,2.8117E4,7.39E3,2.2308E4,1.0307E4,8.714E3,3.1375E4,1.90783E5,1.8757E4,2.1776E4,7.035E3,2.1082E4,1.457E3,5.933E3,4.487E3,1.7821E4,5.108E3,5.199E3,6.712E3,2.002E3,1.5616E4,1.5759E4,1.84508E5,6.275E3,1.3419E4,5.338E3,1.1404E4,1.0372E4,6.76E2,6.359E3,4.216E3,1.6866E4,8.31E2,6.26E2,4.344E3,1.589E3,2.374E3,2.113E3,1.0967E4,6.854E3,3.499E3,1.609E3,2.886E3,2.313E3,3.5E2,6.362E3,1.002E3,1E3,3.727E3,1.1889E4,2.468E3,1.3291E4,1.60366E5,2.4142E4,4.169E3,2.106E3,8.447E3,4.972E3,4.211E3,1.127E3,7.879E3,3.525E3,7.965E3,2.407E3,3.78E2,2.98E2,1.27E2,6.232E3,1.794E3,2.422E3,8.149E3,8.717E3,1.06E2,7.25E2,5.42E2,8.4E1,9.8E1,4.246E3,1.506E3,8.3E1,1.963E3,4.11E2,1.989E3,1.24E2,9.155E3,1.812E3,3.139E3,3.715E3,1.114E3,2.385E3,1.069E3,5.4E2,2.239E3,6.47E2,2.289E3,2.4E1,2.99E2,5.1E1,6.69E2,5.693E3,8.31E2,1.71E2,8.35E2,1.65E2,3.129E3,5.98E2,9.761E3,2.128E3,2.23E3,2.38E2,9.671E3,3.62E3,1.21518E5,3.8848E4,3.154E3,2.0988E4,2.5E2,3.919E3,1.577E3,5.29E2],"tree_param":{"num_deleted":"0","num_feature":"13","num_nodes":"127","size_leaf_vector":"1"}},{"base_weights":[-1.8072395E-3,-1.2494581E1,3.6697853E0,-1.4474705E1,-7.6957293E0,-2.6340613E0,5.9736266E0,-1.6024853E1,-1.2372344E1,-5.6863036E0,-1.2944908E1,2.5835535E-1,-1.0755863E1,3.2271242E0,7.604967E0,-1.64206E1,-1.4008575E1,-1.3369504E1,-6.8435216E0,-8.396166E0,-2.395773E0,-1.6981325E1,-1.1294246E1,-2.3618866E1,9.607331E-1,-1.2653102E1,6.096405E0,5.1647E0,-4.603746E0,9.719753E0,6.6543794E0,-1.9939314E1,-1.6258503E1,-9.190493E0,-1.7963165E1,-1.7028656E1,-1.2241932E1,-8.694638E0,1.5506054E0,-1.0858038E1,-4.2051697E0,-4.1988025E0,8.504065E0,-1.3793461E1,-2.2019306E1,-1.4055142E1,-8.347884E0,-7.0660186E0,-2.5919867E1,-2.7183714E0,5.480859E0,-1.3701763E1,-3.4734273E0,-1.3348258E1,1.3895954E1,-2.9962783E0,7.4764085E0,-8.283037E0,9.649249E0,3.127076E0,1.0074228E1,-2.4855663E-1,7.696476E0,-1.9422282E0,-2.3115861E0,-1.6566706E0,-1.5007924E0,-1.4405432E0,2.4366713E-1,-1.5745174E0,-1.8878628E0,-1.8110608E0,-1.0015628E0,-1.0568027E0,-1.5012624E0,-9.7871774E-1,5.149104E-1,8.903286E-1,8.038494E-2,-8.618189E-1,-1.6081018E0,-5.329531E-1,1.3018821E0,-1.1080636E-1,-8.383501E-1,1.6527067E0,1.6588108E-1,-1.2968792E0,-2.0681732E0,-2.0465963E0,-3.2045536E0,-5.636147E-1,-1.5204191E0,-2.994707E-1,-1.0241911E0,-2.299628E0,-5.601614E-1,-3.4295735E0,-2.3066776E0,-1.0789756E0,3.5332482E-2,-1.0113112E0,7.098308E-1,-1.2562608E0,-1.9967852E0,-7.1624124E-1,1.0889672E0,-1.9123507E0,-4.0318504E-1,-5.625994E-1,1.45667E0,7.7276796E-2,-2.0939004E0,-1.6870996E-2,8.455089E-1,-1.2110428E0,-1.10554494E-1,8.644198E-2,1.1882886E0,-4.3714833E-1,6.9748884E-1,1.2463081E0,9.228763E-1,6.85401E-1,-1.4971662E0,-5.3928393E-1,8.100402E-1],"categories":[],"categories_nodes":[],"categories_segments":[],"categories_sizes":[],"default_left":[0,0,0,0,0,0,0,0,0,0,0,0,0,0,0,0,0,0,0,0,0,0,0,0,0,0,0,0,0,0,0,0,0,0,0,0,0,0,0,0,0,0,0,0,0,0,0,0,0,0,0,0,0,0,0,0,0,0,0,0,0,0,0,0,0,0,0,0,0,0,0,0,0,0,0,0,0,0,0,0,0,0,0,0,0,0,0,0,0,0,0,0,0,0,0,0,0,0,0,0,0,0,0,0,0,0,0,0,0,0,0,0,0,0,0,0,0,0,0,0,0,0,0,0,0,0,0],"id":13,"left_children":[1,3,5,7,9,11,13,15,17,19,21,23,25,27,29,31,33,35,37,39,41,43,45,47,49,51,53,55,57,59,61,63,65,67,69,71,73,75,77,79,81,83,85,87,89,91,93,95,97,99,101,103,105,107,109,111,113,115,117,119,121,123,125,-1,-1,-1,-1,-1,-1,-1,-1,-1,-1,-1,-1,-1,-1,-1,-1,-1,-1,-1,-1,-1,-1,-1,-1,-1,-1,-1,-1,-1,-1,-1,-1,-1,-1,-1,-1,-1,-1,-1,-1,-1,-1,-1,-1,-1,-1,-1,-1,-1,-1,-1,-1,-1,-1,-1,-1,-1,-1,-1,-1,-1,-1,-1,-1],"loss_changes":[1.5573643E7,7.32718E5,3.810983E6,1.77718E5,2.3755862E5,1.6499145E6,8.610115E5,2.4841E4,1.276695E5,1.4527156E5,4.135725E4,8.6860075E5,5.8978325E5,1.0866008E6,2.423025E5,1.4654E4,9.818931E4,8.079225E4,5.506642E4,9.2143E4,1.4467981E5,2.8733469E4,3.591075E4,5.618725E4,8.3670425E5,1.59538E5,2.8333397E5,1.0830895E6,7.450032E5,8.7335E4,5.98352E5,1.4430312E3,9.429E3,1.4125389E5,5.457125E3,3.488925E4,6.94605E4,4.3957766E4,3.512355E3,6.5701625E4,6.4132062E4,8.168067E4,5.7363453E4,6.037172E3,1.02305E4,2.2019031E4,2.171761E4,4.1169434E3,3.0251188E4,6.876828E5,5.694939E5,1.0594925E5,9.020592E4,2.8708336E4,1.753664E4,8.570526E5,3.3472925E5,3.1016238E5,5.7188156E4,5.511096E4,7.15375E4,1.1410859E6,3.821375E5,0E0,0E0,0E0,0E0,0E0,0E0,0E0,0E0,0E0,0E0,0E0,0E0,0E0,0E0,0E0,0E0,0E0,0E0,0E0,0E0,0E0,0E0,0E0,0E0,0E0,0E0,0E0,0E0,0E0,0E0,0E0,0E0,0E0,0E0,0E0,0E0,0E0,0E0,0E0,0E0,0E0,0E0,0E0,0E0,0E0,0E0,0E0,0E0,0E0,0E0,0E0,0E0,0E0,0E0,0E0,0E0,0E0,0E0,0E0,0E0,0E0,0E0,0E0,0E0],"parents":[2147483647,0,0,1,1,2,2,3,3,4,4,5,5,6,6,7,7,8,8,9,9,10,10,11,11,12,12,13,13,14,14,15,15,16,16,17,17,18,18,19,19,20,20,21,21,22,22,23,23,24,24,25,25,26,26,27,27,28,28,29,29,30,30,31,31,32,32,33,33,34,34,35,35,36,36,37,37,38,38,39,39,40,40,41,41,42,42,43,43,44,44,45,45,46,46,47,47,48,48,49,49,50,50,51,51,52,52,53,53,54,54,55,55,56,56,57,57,58,58,59,59,60,60,61,61,62,62],"right_children":[2,4,6,8,10,12,14,16,18,20,22,24,26,28,30,32,34,36,38,40,42,44,46,48,50,52,54,56,58,60,62,64,66,68,70,72,74,76,78,80,82,84,86,88,90,92,94,96,98,100,102,104,106,108,110,112,114,116,118,120,122,124,126,-1,-1,-1,-1,-1,-1,-1,-1,-1,-1,-1,-1,-1,-1,-1,-1,-1,-1,-1,-1,-1,-1,-1,-1,-1,-1,-1,-1,-1,-1,-1,-1,-1,-1,-1,-1,-1,-1,-1,-1,-1,-1,-1,-1,-1,-1,-1,-1,-1,-1,-1,-1,-1,-1,-1,-1,-1,-1,-1,-1,-1,-1,-1,-1],"split_conditions":[8.965566E0,5.2720156E0,8.522208E2,1.0299192E2,2.1306986E1,4.540123E1,8E0,3.999341E1,1.5E1,5.37E2,-1E0,1E0,1.8E1,4.0060886E1,3E0,1.16275734E2,4.0038403E1,3.9409798E1,9.348527E2,6.1058616E-3,2.67E1,5.1110207E1,1.64E2,3E0,1.9398306E1,1.2530652E2,3.5457054E1,1.380744E3,3E0,1.1494027E2,2.1332651E1,3.991985E1,1.1640878E2,1.1633165E2,2.7432E0,1.1E1,2.99E2,6.745224E2,3E0,1.1E1,2.3E1,9.2E0,1.2E1,1.2E1,1.011936E3,3.6E0,2E0,4.48056E1,1.085088E2,1.1899392E2,1.1619678E2,4.003228E1,-2E0,1.162728E2,3.9757915E1,1.63E1,3.916781E1,2.4835105E3,1.9157063E1,1.3328904E3,1.6418662E3,2.27E1,3.2220183E3,-1.9422282E0,-2.3115861E0,-1.6566706E0,-1.5007924E0,-1.4405432E0,2.4366713E-1,-1.5745174E0,-1.8878628E0,-1.8110608E0,-1.0015628E0,-1.0568027E0,-1.5012624E0,-9.7871774E-1,5.149104E-1,8.903286E-1,8.038494E-2,-8.618189E-1,-1.6081018E0,-5.329531E-1,